tree
version=v3
num_class=1
num_tree_per_iteration=1
label_index=0
max_feature_idx=29
objective=regression
feature_names=Column_0 Column_1 Column_2 Column_3 Column_4 Column_5 Column_6 Column_7 Column_8 Column_9 Column_10 Column_11 Column_12 Column_13 Column_14 Column_15 Column_16 Column_17 Column_18 Column_19 Column_20 Column_21 Column_22 Column_23 Column_24 Column_25 Column_26 Column_27 Column_28 Column_29
feature_infos=[0:1] [0:1] [0:1] [0:1] [0:1] [0:1] [0:1] [0:1] [0:1] [0:1] [0:1] [0:1] [0:0.99999999999999989] [0:0.99999999999999989] [0:1] [0:1] [0:1] [0:1] [0:1] [0:0.99999999999999978] [0:1] [0:1] [0:1] [0:1] [0:1] [0:1] [0:1] [0:1] [0:1] [0:1]
tree_sizes=2754 2738 2780 2751 2767 2743 2775 2768 2797 2756 2767 2796 2742 2796 2776 2768 2791 2764 2754 2739 2768 2800 2766 2729 2783 2808 2718 2802 2775 2710 2768 2795 2778 2783 2769 2756 2739 2772 2777 2742 2730 2699 2718 2706 2689 2753 2761 2722 2809 2749 2657 2733 2756 2730 2725 2695 2759 2776 2777 2669 2702 2715 2733 2762 2714 2602 2621 2756 2738 2666 2686 2733 2709 2665 2667 2720 2656 2652 2748 2747 2657 2611 2658 2720 2660 2609 2635 2665 2686 2693 2631 2714 2618 2710 2641 2694 2728 2647 2613 2726 2665 2730 2655 2661 2568 2690 2735 2659 2607 2552 2679 2709 2633 2655 2539 2638 2669 2699 2643 2708 2667 2614 2691 2658 2629 2691 2662 2659 2651 2754 2666 2594 2639 2574 2569 2645 2624 2699 2748 2576 2634 2575 2553 2658 2654 2623 2615 2621 2607 2517 2576 2643 2696 2643 2609 2568 2605 2707 2595 2559 2687 2725 2669 2644 2675 2602 2709 2642 2612 2589 2536 2662 2559 2594 2640 2627 2681 2515 2672 2539 2580 2560 2630 2680 2708 2652 2642 2545 2603 2628 2603 2569 2541 2655 2623 2654 2490 2604 2656 2637 2653 2605 2566 2546 2593 2658 2595 2643 2584 2604 2635 2607 2720 2608 2558 2559 2537 2564 2528 2569 2686 2603 2675 2660 2503 2576 2519 2636 2629 2597 2556 2612 2721 2639 2596 2534 2732 2620 2728 2582 2633 2610 2594 2625 2561 2582 2612 2590 2580 2581 2587 2619 2655 2548 2677 2615 2667 2483 2699

Tree=0
num_leaves=31
num_cat=0
split_feature=15 18 25 18 18 0 8 11 18 18 6 3 0 3 18 1 8 1 3 0 3 1 0 1 11 0 1 27 25 26
split_gain=6.27132e+07 1.48744e+07 3.45079e+06 2.52074e+06 2.00432e+06 1.10204e+06 964260 954360 819474 799967 759480 590416 473914 568878 462993 443054 620129 395109 356341 355802 347342 323458 281794 432620 257155 298640 255528 230245 235997 228934
threshold=1.0000000180025095e-35 0.33990180215207105 0.4420677383478378 0.5583215101041662 0.7164548060064394 0.0044035228182546038 0.56250000000000011 0.037638596169705864 0.44687379348312001 0.31773895238973543 0.36111111111111116 0.026073619631901846 0.0060048038430744596 0.28374233128834364 0.16810216054879498 0.059463986599665002 0.43750000000000006 0.0092127303182579588 0.85429447852760754 0.0084067253803042433 0.5383435582822087 0.0025125628140703522 0.0068054443554843884 0.010887772194304859 0.005715660221753874 0.0036028823058446759 0.0058626465661641555 0.63071861127923523 0.38204603426900979 0.61740562909739094
decision_type=2 2 2 2 2 2 2 2 2 2 2 2 2 2 2 2 2 2 2 2 2 2 2 2 2 2 2 2 2 2
left_child=2 6 4 10 8 15 14 29 -1 24 12 26 17 -14 -2 -5 -17 -3 20 21 27 -10 23 -16 -4 -26 -6 -9 -29 -7
right_child=1 3 9 5 11 7 -8 18 19 -11 -12 -13 13 -15 22 16 -18 -19 -20 -21 -22 -23 -24 -25 25 -27 -28 28 -30 -31
leaf_value=134.19472258688322 139.3689926041157 147.99656763802761 132.98075765255373 152.23070912265649 147.99288591844405 147.13015908157695 155.67656095392707 147.93919889686634 141.60696994292348 135.72367394854771 154.33922241200048 157.93428757683537 143.35037858553511 151.50252578171521 143.49634737028924 146.81011925924352 158.09059946556857 145.61914273266831 143.34458298926836 134.48558631052282 155.75087297409416 138.04674624944914 138.80509181376243 140.81968754530223 135.26107704435518 132.40752783186102 140.00805139186295 161.2040837732531 150.24142101398814 143.30650323121407
leaf_weight=660 1878 1015 4992 1248 81 260 38 304 282 1688 100 38 1019 87 795 359 54 2165 71 211 125 1240 365 1921 1246 518 71 31 90 398
leaf_count=660 1878 1015 4992 1248 81 260 38 304 282 1688 100 38 1019 87 795 359 54 2165 71 211 125 1240 365 1921 1246 518 71 31 90 398
internal_value=140.008 144.704 134.76 147.453 137.836 149.635 140.67 147.465 137.078 133.821 145.984 147.252 145.781 144.019 140.548 151.289 148.374 146.386 150.187 138.19 151.028 138.719 141.272 141.611 133.35 134.408 144.352 149.558 153.366 144.855
internal_weight=0 12323 11027 7326 2583 2940 4997 1279 2393 8444 4386 190 4286 1106 4959 1661 413 3180 621 1733 550 1522 3081 2716 6756 1764 152 425 121 658
internal_count=23350 12323 11027 7326 2583 2940 4997 1279 2393 8444 4386 190 4286 1106 4959 1661 413 3180 621 1733 550 1522 3081 2716 6756 1764 152 425 121 658
is_linear=0
shrinkage=1


Tree=1
num_leaves=31
num_cat=0
split_feature=15 18 18 18 18 4 0 11 4 0 8 4 3 18 1 18 3 7 1 0 11 6 3 3 19 27 8 27 1 4
split_gain=5.13197e+07 1.2187e+07 4.20024e+06 1.84209e+06 1.23157e+06 987427 892359 783436 660546 707256 654854 610944 583259 497022 465340 436905 403579 385969 417666 320560 337689 293646 285916 284385 272992 237886 230431 221886 212712 211003
threshold=1.0000000180025095e-35 0.36280301366687051 0.38713872749433748 0.5583215101041662 0.7164548060064394 0.93269230769230793 0.0044035228182546038 0.029219737927242743 0.13598901098901103 0.0052041633306645326 0.56250000000000011 0.11401098901098904 0.026073619631901846 0.16810216054879498 0.077889447236180923 0.22717602398260686 0.34049079754601236 0.54166666666666674 0.09798994974874374 0.0060048038430744596 0.021041418491707143 0.36111111111111116 0.85429447852760754 0.5383435582822087 1.0000000180025095e-35 0.52323069715205162 0.43750000000000006 0.38523161969615677 0.0058626465661641555 0.16071428571428578
decision_type=2 2 2 2 2 2 2 2 2 2 2 2 2 2 2 2 2 2 2 2 2 2 2 2 2 2 2 2 2 2
left_child=2 5 15 8 19 10 11 26 -3 17 13 -5 28 -2 -13 -1 -11 18 25 20 -4 -16 23 -9 -15 -10 -8 -7 -6 -26
right_child=1 3 4 6 12 27 7 22 9 16 -12 14 -14 24 21 -17 -18 -19 -20 -21 -22 -23 -24 -25 29 -27 -28 -29 -30 -31
leaf_value=-6.3332104081040583 -1.0641488836160535 3.6653912488990148 -1.9434110813407555 6.9787671224806669 6.3838048508463556 0.27632315497407239 3.9824255186908224 8.6237203956812589 6.5276145532571785 3.5767892677452076 13.231810999544649 12.36451555624839 16.256359689866326 -2.7771347631347583 6.2286452473668774 -4.9057875552439736 12.085476239069317 18.156366766891331 4.906253027236013 -4.8600572254041134 1.8011295532282439 16.322882572864707 3.0216836403189573 14.247597229052611 0.0056379898259710263 9.3536505632547957 14.596646342573672 5.7852001434935501 0 1.7577570611129099
leaf_weight=5009 1672 1251 1657 436 92 89 631 432 554 864 35 954 38 164 238 3588 56 32 549 298 249 33 71 125 954 759 20 410 96 1994
leaf_count=5009 1672 1251 1657 436 92 89 631 432 554 864 35 954 38 164 238 3588 56 32 549 298 249 33 71 125 954 759 20 410 96 1994
internal_value=0 4.2499 -4.74582 6.87487 -1.21863 0.787995 8.71407 6.75652 5.5381 6.36224 0.363228 10.2048 5.47861 0.262194 11.3305 -5.74034 4.12865 7.43431 7.22956 -1.91623 -1.44364 7.58671 9.19826 9.94457 0.980959 8.18188 4.36093 4.84292 3.12047 1.19733
internal_weight=0 12323 11027 7005 2430 5318 2940 1279 4065 2814 4819 1661 226 4784 1225 8597 920 1894 1862 2204 1906 271 628 557 3112 1313 651 499 188 2948
internal_count=23350 12323 11027 7005 2430 5318 2940 1279 4065 2814 4819 1661 226 4784 1225 8597 920 1894 1862 2204 1906 271 628 557 3112 1313 651 499 188 2948
is_linear=0
shrinkage=0.0957982


Tree=2
num_leaves=31
num_cat=0
split_feature=15 18 18 18 18 6 0 4 11 8 4 3 1 0 4 1 1 18 25 18 8 26 26 25 0 1 0 4 3 3
split_gain=4.19989e+07 1.00491e+07 3.43642e+06 1.67777e+06 1.01235e+06 758874 724793 675121 640443 612012 497018 478370 405230 518676 612296 373653 364090 355163 271920 267954 247769 246203 238886 221277 218068 210252 244830 218152 205906 314540
threshold=1.0000000180025095e-35 0.33935407651484401 0.38713872749433748 0.5583215101041662 0.7164548060064394 0.36111111111111116 0.0044035228182546038 0.92445054945054961 0.037638596169705864 0.43750000000000006 0.11401098901098904 0.026073619631901846 1.0000000180025095e-35 0.0052041633306645326 0.13598901098901103 0.077889447236180923 0.1599664991624791 0.22717602398260686 0.40969028496543919 0.16810216054879498 0.43750000000000006 0.5390631513663352 0.78325359460828292 0.42593456804520008 1.0000000180025095e-35 0.056113902847571194 0.0068054443554843884 0.21840659340659346 0.010736196319018407 0.28374233128834364
decision_type=2 2 2 2 2 2 2 2 2 2 2 2 2 2 2 2 2 2 2 2 2 2 2 2 2 2 2 2 2 2
left_child=2 5 17 9 18 7 10 19 28 12 -5 -6 -3 14 -14 24 -16 -1 -4 -2 -17 -10 25 -23 -12 26 27 -21 -8 -30
right_child=1 3 4 6 11 -7 8 -9 21 -11 15 -13 13 -15 16 20 -18 -19 -20 22 -22 23 -24 -25 -26 -27 -28 -29 29 -31
leaf_value=-5.7266307773636527 -0.99495333709175648 6.9391377464861854 -0.51229547967459543 6.3118647485474417 2.8229087102556374 8.2935930549236172 5.9973191209910874 3.7320782323400987 3.7322022019537906 11.268599706711578 8.0590385914073845 14.742036502403138 2.9728301416087244 2.0500314279429928 6.5908937062321069 5.4860759985511498 2.8242543794957693 -4.4359631773266166 -2.6829048523893144 0.72422476463784502 14.084769703762515 10.545941901595889 -2.2237499528908353 5.6971279652801945 12.013889081257673 -0.27858202704487411 -1.2587353575985005 3.2357846218976802 0.51306562699706637 6.5736090685295183
leaf_weight=5009 1650 652 974 436 188 112 278 485 104 138 208 38 1021 783 1491 231 305 3588 1230 638 40 372 254 145 746 935 237 682 264 116
leaf_count=5009 1650 652 974 436 188 112 278 485 104 138 208 38 1021 783 1491 231 305 3588 1230 638 40 372 254 145 746 935 237 682 264 116
internal_value=0 3.84675 -4.29116 6.10456 -1.09982 0.527794 7.8872 0.343959 6.11847 4.9048 9.23301 4.97023 4.69104 4.27671 4.88794 10.2509 5.96376 -5.19077 -1.7329 -0.0263982 6.8751 8.35333 0.548909 9.23697 11.1814 0.839887 1.52332 2.03766 3.97056 2.42577
internal_weight=0 12323 11027 7330 2430 4993 2940 4881 1279 4390 1661 226 4252 3600 2817 1225 1796 8597 2204 4396 271 621 2746 517 954 2492 1557 1320 658 380
internal_count=23350 12323 11027 7330 2430 4993 2940 4881 1279 4390 1661 226 4252 3600 2817 1225 1796 8597 2204 4396 271 621 2746 517 954 2492 1557 1320 658 380
is_linear=0
shrinkage=0.0957982


Tree=3
num_leaves=31
num_cat=0
split_feature=15 18 18 18 18 6 0 4 11 6 4 0 4 3 25 1 25 0 11 4 0 1 3 3 3 8 18 3 4 11
split_gain=3.43701e+07 8.23383e+06 2.81964e+06 1.37375e+06 856791 638300 588621 549556 522285 511345 469365 454981 407018 392156 314596 309059 287118 269715 245643 241497 229964 264714 218962 223275 213420 209587 204333 194394 186915 224222
threshold=1.0000000180025095e-35 0.33990180215207105 0.38089694435207533 0.5583215101041662 0.7164548060064394 0.41666666666666669 0.0044035228182546038 0.92445054945054961 0.029219737927242743 0.36111111111111116 0.78434065934065955 0.0052041633306645326 0.16346153846153852 0.026073619631901846 0.5000515324319289 0.077889447236180923 0.52352209245168535 0.0036028823058446759 0.017811325941537622 0.20192307692307698 0.0068054443554843884 0.056113902847571194 0.85429447852760754 0.5383435582822087 0.026073619631901846 0.43750000000000006 0.79510919161504012 0.34049079754601236 0.97939560439560458 0.0058531109685695986
decision_type=2 2 2 2 2 2 2 2 2 2 2 2 2 2 2 2 2 2 2 2 2 2 2 2 2 2 2 2 2 2
left_child=2 5 16 9 17 7 12 19 26 10 14 -12 25 -6 -3 -14 28 18 24 -2 21 -21 23 -10 -4 -5 -8 -13 -1 -30
right_child=1 3 4 6 13 -7 8 -9 22 -11 11 27 15 -15 -16 -17 -18 -19 -20 20 -22 -23 -24 -25 -26 -27 -28 -29 29 -31
leaf_value=-4.3300931231723272 -0.93295268101233664 4.0642931456569 -1.8340318189224452 5.5262245693562377 2.5540226801566726 9.0267247331821334 3.2043110487491968 3.392065422115675 7.0188901550976235 11.302110967738336 8.3252308476349466 3.3387216731052285 10.312218848424788 13.368776584543442 1.0740550274207765 6.2224044510350502 -5.2688995601008664 -3.8182157371903553 1.6178172938902569 1.8127793823786877 -1.7940093840578288 -0.15231331507981863 2.1214012330724321 12.005061236538562 2.8193581544887349 14.596601901751802 12.73550038588527 11.666667140086423 -4.1705646891805399 0.33316726673433567
leaf_weight=3607 1612 2978 1564 506 188 78 629 486 432 100 474 422 876 38 383 252 4465 431 251 1289 336 1196 71 125 92 27 22 29 208 183
leaf_count=3607 1612 2978 1564 506 188 78 629 486 432 100 474 422 876 38 383 252 4465 431 251 1289 336 1196 71 125 92 27 22 29 208 183
internal_value=0 3.4816 -3.88019 5.52674 -1.087 0.478964 7.14052 0.337657 5.54203 4.43924 4.27193 6.21563 8.35569 4.51001 3.72958 9.42199 -4.72397 -1.63789 -1.1334 0 0.536492 0.859796 7.54084 8.19257 -1.56251 6.04942 3.57575 3.94233 -4.10944 -2.01968
internal_weight=0 12323 11027 7326 2564 4997 2940 4919 1279 4386 4286 925 1661 226 3361 1128 8463 2338 1907 4433 2821 2485 628 557 1656 533 651 451 3998 391
internal_count=23350 12323 11027 7326 2564 4997 2940 4919 1279 4386 4286 925 1661 226 3361 1128 8463 2338 1907 4433 2821 2485 628 557 1656 533 651 451 3998 391
is_linear=0
shrinkage=0.0957982


Tree=4
num_leaves=31
num_cat=0
split_feature=15 18 18 25 18 8 4 6 4 0 25 27 27 1 4 0 1 1 18 1 0 3 4 13 11 26 2 26 25 27
split_gain=2.8125e+07 6.75481e+06 2.33399e+06 1.05624e+06 699225 612128 570706 465469 436022 535455 420281 409522 367169 316274 296071 358654 592339 357142 281089 266421 250087 294379 244700 206127 199872 191998 186135 178619 202429 177353
threshold=1.0000000180025095e-35 0.36280301366687051 0.5583215101041662 0.41600588687658663 0.31374805238554754 0.43750000000000006 0.93269230769230793 0.36111111111111116 0.15521978021978025 0.0044035228182546038 0.41228909181847589 0.5096457542957965 0.64023679317012505 0.0025125628140703522 0.08653846153846155 0.010808646917534028 0.0025125628140703522 0.10301507537688444 0.16810216054879498 0.20854271356783924 0.022818254603682947 0.050613496932515344 0.97939560439560458 0.95454545454545459 0.0058531109685695986 0.78325359460828292 0.028803418803418811 0.42032130167725518 0.49484469067562392 0.38523161969615677
decision_type=2 2 2 2 2 2 2 2 2 2 2 2 2 2 2 2 2 2 2 2 2 2 2 2 2 2 2 2 2 2
left_child=2 6 4 5 22 14 7 18 23 11 -4 -10 -12 -11 -3 17 20 -16 -2 -13 -17 -22 -1 -5 -24 27 -15 -20 -29 -8
right_child=1 3 10 8 -6 -7 29 -9 9 13 12 19 -14 26 15 16 -18 -19 25 -21 21 -23 24 -25 -26 -27 -28 28 -30 -31
leaf_value=-4.6856605606670145 -0.89311356599141756 3.9552032029619544 -0.35448925075303445 2.3869648136218218 -2.6282292158894895 13.183186347855964 -0.01553382381470274 6.4677183313720175 3.5139427333116244 4.8529069645224574 2.393549443814194 7.3045397430006167 13.05367928844537 1.1306611168156742 8.4589672429952127 2.9608366436108966 1.6754190293955287 3.7648035818298804 -2.0542052106135826 2.4934966156137381 4.2013078667206436 9.6557028204912925 -4.2519781661694429 11.066637430614977 -1.220490695838591 -1.808145311496693 7.3864619733637076 2.2657282111108681 0.46949035557586871 4.4965980139074109
leaf_weight=6386 1666 478 933 1223 2624 127 89 107 525 550 195 1108 36 585 1097 131 308 193 172 132 150 324 462 26 391 260 48 894 1720 410
leaf_count=6386 1666 478 933 1223 2624 127 89 107 525 550 195 1108 36 585 1097 131 308 193 172 132 150 324 462 26 391 260 48 894 1720 410
internal_value=0 3.15116 -3.5083 5.1055 -3.98728 6.55609 0.572814 0.248914 4.12908 4.77273 0.534062 5.84306 4.18875 3.1561 6.22998 6.71286 5.18427 7.77494 0.102265 6.81014 6.93344 7.98262 -4.47685 2.59206 -2.88768 0.65297 1.64641 0.889998 1.09167 3.65599
internal_weight=0 12323 11027 7005 9863 2808 5318 4819 4197 2948 1164 1765 231 1183 2681 2203 913 1290 4712 1240 605 474 7239 1249 853 3046 633 2786 2614 499
internal_count=23350 12323 11027 7005 9863 2808 5318 4819 4197 2948 1164 1765 231 1183 2681 2203 913 1290 4712 1240 605 474 7239 1249 853 3046 633 2786 2614 499
is_linear=0
shrinkage=0.0957982


Tree=5
num_leaves=31
num_cat=0
split_feature=15 18 18 18 18 7 8 8 4 4 0 1 11 1 0 1 4 25 25 28 0 11 16 4 0 3 4 27 4 4
split_gain=2.30197e+07 5.56854e+06 1.93395e+06 961102 554282 497585 468804 399733 399978 373824 339810 447364 442425 308570 261737 425782 282622 259676 259359 240652 221725 225002 209649 196889 185598 304738 258723 174415 167329 153718
threshold=1.0000000180025095e-35 0.32643952350330002 0.4406356400702145 0.5583215101041662 0.7164548060064394 0.62500000000000011 0.43750000000000006 0.43750000000000006 0.94368131868131888 0.2156593406593407 0.0044035228182546038 0.029313232830820771 0.029219737927242743 0.0058626465661641555 0.0068054443554843884 0.02261306532663317 0.99313186813186838 0.51557001493456067 0.49601627074008198 0.18385776528568445 0.0084067253803042433 0.0082355905800421559 1.0000000180025095e-35 0.3530219780219781 0.0068054443554843884 0.28374233128834364 0.050824175824175838 0.5160929884003026 0.9739010989010991 0.38873626373626385
decision_type=2 2 2 2 2 2 2 2 2 2 2 2 2 2 2 2 2 2 2 2 2 2 2 2 2 2 2 2 2 2
left_child=2 5 17 7 20 9 10 8 18 -2 11 23 -12 29 15 16 -11 28 19 24 21 22 -4 -5 26 -26 -3 -14 -1 -6
right_child=1 3 4 6 13 -7 -8 -9 -10 14 12 -13 27 -15 -16 -17 -18 -19 -20 -21 -22 -23 -24 -25 25 -27 -28 -29 -30 -31
leaf_value=-3.4272398141165534 -0.8892536495873189 2.3880085710395789 -5.1620150217560203 6.25710923468713 1.6326245982574095 11.282411735260167 12.1508400026181 8.7688801282966704 6.7109136164638041 2.2385928456973785 2.5439889789938794 4.2783758207524354 2.3195052943707521 0 -1.3741387543788177 0.30394627159836235 8.0026659604787316 -4.3033066693100146 1.2012281000535772 1.3236959555162011 -3.850199203955921 1.5312837947119915 -0.95636944968370208 9.1607458849809866 1.790188390773779 8.1362979118273735 4.8775800110783587 6.9474605592129395 -1.211405818257608 9.5188057864327327
leaf_weight=3413 1663 549 120 494 41 37 110 138 328 945 631 546 104 105 407 1807 88 4903 559 440 258 303 1428 532 702 79 1641 523 376 80
leaf_count=3413 1663 549 120 494 41 37 110 138 328 945 631 546 104 105 407 1807 88 4903 559 440 258 303 1428 532 702 79 1641 523 376 80
internal_value=0 2.85229 -3.17252 4.52007 -0.714465 0.361387 5.87434 3.61707 3.44513 0.272806 5.6192 6.58538 4.39234 3.76331 0.87385 1.20302 2.75562 -3.83052 3.16883 3.4853 -1.20488 -0.823998 -1.29788 7.78902 3.79852 2.46646 4.26354 6.21502 -3.21271 7.03849
internal_weight=0 12323 11027 7376 2335 4947 2940 4436 4298 4910 2830 1572 1258 226 3247 2840 1033 8692 3970 3411 2109 1851 1548 1026 2971 781 2190 627 3789 121
internal_count=23350 12323 11027 7376 2335 4947 2940 4436 4298 4910 2830 1572 1258 226 3247 2840 1033 8692 3970 3411 2109 1851 1548 1026 2971 781 2190 627 3789 121
is_linear=0
shrinkage=0.0957982


Tree=6
num_leaves=31
num_cat=0
split_feature=15 18 18 7 18 18 8 0 11 4 0 25 4 1 27 27 1 0 25 25 1 11 0 4 0 4 4 11 0 2
split_gain=1.88453e+07 4.56081e+06 1.62598e+06 821098 737245 482524 418472 321089 357693 312822 328152 295254 292975 277121 274621 257605 263728 281495 261639 216942 205161 193385 259593 202769 173284 233192 175233 158264 150147 199317
threshold=1.0000000180025095e-35 0.32643952350330002 0.5583215101041662 0.54166666666666674 0.5583215101041662 0.31267467924132986 0.56250000000000011 0.0044035228182546038 0.029219737927242743 0.77884615384615408 0.0052041633306645326 0.41228909181847589 0.2156593406593407 0.029313232830820771 0.64023679317012505 0.38523161969615677 0.13986599664991628 0.0068054443554843884 0.60090559181650971 0.49601627074008198 0.010887772194304859 0.005715660221753874 0.002802241793434748 0.97115384615384637 1.0000000180025095e-35 0.11401098901098904 0.8310439560439562 0.014283423439934025 0.0036028823058446759 0.0043589743589743605
decision_type=2 2 2 2 2 2 2 2 2 2 2 2 2 2 2 2 2 2 2 2 2 2 2 2 2 2 2 2 2 2
left_child=2 6 5 4 9 21 12 13 -9 19 -11 -4 -2 24 27 -14 17 18 20 -3 -17 -1 23 -23 26 -26 -6 -13 29 -7
right_child=1 3 11 -5 7 28 -8 8 -10 10 -12 14 15 -15 -16 16 -18 -19 -20 -21 -22 22 -24 -25 25 -27 -28 -29 -30 -31
leaf_value=-3.9800042610952988 -0.78260134995553399 3.0410980437703494 -0.23869529095942649 13.551136476378952 2.4679929359701447 0.020620463494294635 10.213601094544467 2.3244442778241399 5.624025818502826 6.4638077385704111 2.8199557807120494 0.026202951664995332 -1.0604096140862378 4.3404759381431042 11.244394037263245 4.5886030106828661 -0.72605620699791429 -0.9289769783049413 0.14008193379558767 0.74823066936526661 1.9617464369024162 -2.6442521596634623 -4.4021522077171911 0.18756091296274599 5.0168315936745458 8.8032427205735555 9.1068244639678788 6.0497196358641867 -3.6676403448939712 -2.2386789384502777
leaf_weight=5352 1664 2964 933 84 153 433 38 638 627 501 466 135 566 596 36 417 525 321 479 461 937 948 634 291 246 586 54 60 502 1703
leaf_count=5352 1664 2964 933 84 153 433 38 638 627 501 466 135 566 596 36 417 525 321 479 461 937 948 634 291 246 586 54 60 502 1703
internal_value=0 2.58221 -2.86902 4.09157 3.97804 -3.26887 0.327539 5.17453 3.97812 3.18265 4.73232 0.502822 0.24496 6.08548 3.56587 0.777752 1.17338 1.64518 2.10649 2.73829 2.78762 -3.67759 -2.80166 -1.96443 7.06287 7.71419 4.32835 1.99845 -2.1413 -1.77212
internal_weight=0 12323 11027 7376 7292 9863 4947 2900 1265 4392 967 1164 4909 1635 231 3245 2679 2154 1833 3425 1354 7225 1873 1239 1039 832 207 195 2638 2136
internal_count=23350 12323 11027 7376 7292 9863 4947 2900 1265 4392 967 1164 4909 1635 231 3245 2679 2154 1833 3425 1354 7225 1873 1239 1039 832 207 195 2638 2136
is_linear=0
shrinkage=0.0957982


Tree=7
num_leaves=31
num_cat=0
split_feature=15 18 18 6 25 25 7 4 1 0 4 18 25 3 4 0 1 1 1 2 0 3 4 0 18 4 0 3 2 4
split_gain=1.54216e+07 3.74338e+06 1.33318e+06 712639 559723 367729 351398 370659 267200 295827 337168 252561 244841 253810 216371 218879 414577 229867 211375 199131 197996 211491 192090 183259 163749 164390 143652 168969 142554 137650
threshold=1.0000000180025095e-35 0.36280301366687051 0.5583215101041662 0.36111111111111116 0.41600588687658663 0.51004980225777541 0.54166666666666674 0.96016483516483542 1.0000000180025095e-35 0.0044035228182546038 0.77884615384615408 0.22717602398260686 0.41228909181847589 0.026073619631901846 0.08653846153846155 0.010808646917534028 0.0041876046901172534 0.13651591289782247 0.027638190954773875 0.011538461538461541 0.022818254603682947 0.5383435582822087 0.11401098901098904 0.0060048038430744596 0.31976679338618363 0.96016483516483542 0.0068054443554843884 0.0046012269938650319 0.039572649572649589 0.16071428571428578
decision_type=2 2 2 2 2 2 2 2 2 2 2 2 2 2 2 2 2 2 2 2 2 2 2 2 2 2 2 2 2 2
left_child=2 6 5 4 14 24 7 11 -6 10 18 26 -4 -14 -3 17 20 -16 22 23 -17 -22 -10 -9 -1 -26 27 -2 -11 -13
right_child=1 3 12 -5 8 -7 -8 19 9 28 -12 29 13 -15 15 16 -18 -19 -20 -21 21 -23 -24 -25 25 -27 -28 -29 -30 -31
leaf_value=-2.8763891527467504 -0.47255122216877671 2.7843872965142737 -0.21585515961228155 9.9323059423818574 4.6177268174045647 -3.5194158313632515 8.9517814020820481 7.0897059484258076 2.0937306124645172 0.81737001143214538 5.7754553813835257 -0.15900224642406879 1.7166795081324331 10.504629442039048 6.3833834786466115 1.7857309504716796 0.50706957771927008 2.0468214936523479 1.635643745917289 0.61991912614465383 4.8049925952205674 9.5320652610618453 4.8680035418807881 0.1390155151576136 -1.9683648108727554 0.85811996839326177 -2.3203289099660194 1.8303801940972106 7.5174044428663462 1.5531582825051953
leaf_weight=2464 2357 487 933 172 724 5185 43 146 457 905 377 619 194 37 1181 142 251 140 1076 156 390 131 542 53 2016 198 326 331 30 1287
leaf_count=2464 2357 487 933 172 724 5185 43 146 457 905 377 619 194 37 1181 142 251 140 1076 156 390 131 542 53 2016 198 326 331 30 1287
internal_value=0 2.33709 -2.59417 3.79205 3.63319 -2.95626 0.416682 0.341732 2.91415 2.5431 3.09995 0.121727 0.457712 3.24748 4.71067 5.12046 3.9098 5.94004 2.60206 3.32846 5.16681 6.04678 3.6213 5.3431 -2.32739 -1.70682 -0.419695 -0.181365 1.06082 0.987489
internal_weight=0 12323 11027 7005 6833 9863 5318 5275 4111 3387 2452 4920 1164 231 2722 2235 914 1321 2075 355 663 521 999 199 4678 2214 3014 2688 935 1906
internal_count=23350 12323 11027 7005 6833 9863 5318 5275 4111 3387 2452 4920 1164 231 2722 2235 914 1321 2075 355 663 521 999 199 4678 2214 3014 2688 935 1906
is_linear=0
shrinkage=0.0957982


Tree=8
num_leaves=31
num_cat=0
split_feature=16 18 18 17 8 25 4 17 28 6 4 0 1 4 4 0 7 4 26 0 1 0 1 3 18 26 18 0 2 26
split_gain=1.0992e+07 3.17517e+06 1.24555e+06 1.22833e+06 622203 495419 423330 393375 383011 314970 294547 385389 279392 238430 234946 232854 212686 199388 191678 184735 203458 179484 205568 178246 161960 157092 167566 153639 155952 152851
threshold=1.0000000180025095e-35 0.32643952350330002 0.44687379348312001 1.0000000180025095e-35 0.43750000000000006 0.441063428650395 0.94642857142857162 1.0000000180025095e-35 0.18385776528568445 0.41666666666666669 0.13598901098901103 0.010808646917534028 0.0025125628140703522 0.93818681318681341 0.92445054945054961 0.0060048038430744596 0.54166666666666674 0.97939560439560458 0.51912214515233057 0.0036028823058446759 0.012562814070351761 0.0044035228182546038 0.046063651591289792 0.0046012269938650319 0.66145121263319384 0.78636754405351195 0.16810216054879498 0.0044035228182546038 0.0062393162393162404 0.42032130167725518
decision_type=2 2 2 2 2 2 2 2 2 2 2 2 2 2 2 2 2 2 2 2 2 2 2 2 2 2 2 2 2 2
left_child=1 7 17 4 5 8 19 9 10 14 -3 18 -13 15 25 23 -6 27 -12 20 -4 22 -8 -7 -10 26 -1 28 -2 -28
right_child=2 3 6 -5 16 13 21 -9 24 -11 11 12 -14 -15 -16 -17 -18 -19 -20 -21 -22 -23 -24 -25 -26 -27 29 -29 -30 -31
leaf_value=-0.67839268102182126 -1.871546433594369 2.6565501843764476 1.3244129960311075 -3.8876484953595027 6.1424571699874155 2.1005842462712598 6.3486044019318637 -3.5788942402288408 0.96332297016132773 6.266962690023254 1.9998162460698075 4.503219968842191 1.4349826854354899 4.9409877607225665 2.1656233574993595 0.17963355119949634 12.991939956398548 -1.4071523020066194 6.1302777985809271 -2.8518468804219861 -1.034208475165687 -0.97600166838987534 -0.54714880374735808 5.8435738338256176 4.2811089475740118 -1.8480899060122653 -2.3377366063998881 -4.0241862057599818 -3.0345462787597737 0.79993751951858283
leaf_weight=1478 1484 885 491 218 181 1726 160 256 570 78 128 828 439 262 483 604 67 899 1367 308 1037 60 46 132 187 407 148 1143 4925 2353
leaf_count=1478 1484 885 491 218 181 1726 160 256 570 78 128 828 439 262 483 604 67 899 1367 308 1037 60 46 132 187 407 148 1143 4925 2353
internal_value=0 1.89662 -2.27953 3.14558 3.35653 3.18708 -0.18299 0.0698207 3.82099 0.26317 4.23206 4.72886 3.45705 2.15422 0.161768 1.848 8.11658 -2.79868 5.79088 -0.709453 -0.263621 3.36867 4.72328 2.37984 1.8126 -0.0551008 0.124032 -2.96162 -2.76854 0.605829
internal_weight=0 12797 10553 7594 7376 7128 2102 5203 4404 4947 3647 2762 1267 2724 4869 2462 248 8451 1495 1836 1528 266 206 1858 757 4386 3979 7552 6409 2501
internal_count=23350 12797 10553 7594 7376 7128 2102 5203 4404 4947 3647 2762 1267 2724 4869 2462 248 8451 1495 1836 1528 266 206 1858 757 4386 3979 7552 6409 2501
is_linear=0
shrinkage=0.0957982


Tree=9
num_leaves=31
num_cat=0
split_feature=16 18 18 17 6 4 17 0 1 1 18 2 0 3 3 4 26 8 1 18 25 13 18 11 4 18 3 3 4 11
split_gain=8.99992e+06 2.60946e+06 1.04152e+06 954876 512293 409998 369988 326228 493640 463166 304339 277049 304017 337917 275342 240676 250786 238743 235269 218332 180182 176054 170497 168663 154537 151996 139056 384942 129040 130443
threshold=1.0000000180025095e-35 0.36280301366687051 0.5139723191881177 1.0000000180025095e-35 0.36111111111111116 0.16071428571428578 1.0000000180025095e-35 0.0052041633306645326 0.11139028475711894 0.0025125628140703522 0.31374805238554754 0.061282051282051296 0.0068054443554843884 0.0046012269938650319 0.010736196319018407 0.90247252747252771 0.63477476321592985 0.43750000000000006 0.010887772194304859 0.5139723191881177 0.49601627074008198 0.95454545454545459 0.49813899906621978 0.0043869696692018694 0.96291208791208815 0.60804919515208755 0.85429447852760754 0.5383435582822087 0.97115384615384637 0.0058531109685695986
decision_type=2 2 2 2 2 2 2 2 2 2 2 2 2 2 2 2 2 2 2 2 2 2 2 2 2 2 2 2 2 2
left_child=1 6 10 4 5 20 11 8 19 26 28 12 13 17 22 -4 -17 18 24 -7 21 -3 -11 -15 -1 -18 27 -9 -2 -30
right_child=2 3 15 -5 -6 7 -8 9 -10 14 -12 -13 -14 23 -16 16 25 -19 -20 -21 -22 -23 -24 -25 -26 -27 -28 -29 29 -31
leaf_value=1.1951862989060005 -2.87501040505457 1.8965243919378467 -0.048332009433903173 -3.4513663493241098 8.324460970488051 3.8187405404485224 -3.300501529498276 3.212072241883221 1.6619912491394184 0.574531689131482 -1.452934419940821 -1.2804363324515751 -1.3017216858162122 2.2711193390295188 -0.74677435395366598 1.2957487626925694 0.52718610331885274 5.8201479479434015 -0.12059419013725496 5.7904952214760197 -1.2627736165831158 8.4778317830884298 4.6613418416760073 6.6918733815221465 5.131940981458925 11.381405513900477 0 8.2915895317481283 -2.5859047730641782 -0.13184322924648476
leaf_weight=1043 6132 1753 889 206 172 1193 268 864 620 201 2435 814 631 405 471 179 21 78 2135 1081 156 39 197 108 104 46 87 171 487 364
leaf_count=1043 6132 1753 889 206 172 1193 268 864 620 201 2435 814 631 405 471 179 21 78 2135 1081 156 39 197 108 104 46 87 171 487 364
internal_value=0 1.71674 -2.06208 2.92077 3.11134 2.97607 0.158837 3.44895 4.10885 2.47864 -2.39288 0.337335 0.634116 0.95463 0.789444 0.665941 3.31213 0.597594 0.465883 4.76662 1.77934 2.05524 2.65158 3.25042 1.57298 8.31743 3.7682 4.07718 -2.71768 -1.55976
internal_weight=0 12797 10553 7211 7005 6833 5586 4885 2894 1991 9418 5318 4504 3873 869 1135 246 3360 3282 2274 1948 1792 398 513 1147 67 1122 1035 6983 851
internal_count=23350 12797 10553 7211 7005 6833 5586 4885 2894 1991 9418 5318 4504 3873 869 1135 246 3360 3282 2274 1948 1792 398 513 1147 67 1122 1035 6983 851
is_linear=0
shrinkage=0.0957982


Tree=10
num_leaves=31
num_cat=0
split_feature=15 18 18 7 25 25 6 4 4 11 25 0 4 0 1 1 3 0 27 1 0 3 2 0 3 0 11 4 25 4
split_gain=8.4657e+06 2.09052e+06 770909 484159 376895 256793 243323 226868 213371 185283 204058 216406 179980 179361 315363 213127 263356 174331 173651 191901 174149 166144 155114 194630 141390 136868 233507 143178 128939 123529
threshold=1.0000000180025095e-35 0.32643952350330002 0.5583215101041662 0.54166666666666674 0.441063428650395 0.51557001493456067 0.47222222222222227 0.13598901098901103 0.36675824175824184 0.014283423439934025 0.41134326984487762 0.0020016012810248202 0.93818681318681341 0.0052041633306645326 0.10804020100502514 0.0025125628140703522 0.010736196319018407 0.0060048038430744596 0.38523161969615677 0.13986599664991628 0.0068054443554843884 0.0046012269938650319 0.045213675213675225 0.0012009607686148921 0.0046012269938650319 0.0036028823058446759 0.004822230367451664 0.96016483516483542 0.57669840247691806 0.98214285714285732
decision_type=2 2 2 2 2 2 2 2 2 2 2 2 2 2 2 2 2 2 2 2 2 2 2 2 2 2 2 2 2 2
left_child=2 6 5 4 7 25 8 -3 -2 -4 -11 -12 17 14 22 -15 -17 24 -10 20 21 28 29 -24 -6 26 -1 -28 -20 -9
right_child=1 3 9 -5 12 -7 -8 13 18 10 11 -13 -14 15 -16 16 -18 -19 19 -21 -22 -23 23 -25 -26 -27 27 -29 -30 -31
leaf_value=-1.8340455120389536 -0.53879995480300291 1.9771513534313983 -0.20928680859202556 10.027838475841893 1.707492974198239 -2.6933313688725127 7.3833208286586975 3.9831776910984917 -0.97074097118208447 0.60405954553640773 9.283177110448932 -1.3037702942988312 4.184517381526704 3.7267557503988527 1.743535275957721 3.569841467045463 -0.44077217926765622 0.058997090655225577 2.1642015097866318 -0.655261111690845 -0.63132262870383182 4.2282566238874733 4.8014950218586501 9.8596303456835912 5.019631482775587 -2.8141563664558422 -0.66113690087474963 2.4518427157554932 0.03459392286941302 8.1959225499578618
leaf_weight=3214 2261 1111 918 84 1737 4903 42 1152 447 162 64 20 263 859 404 263 332 609 812 449 273 252 223 127 134 868 712 166 411 78
leaf_count=3214 2261 1111 918 84 1737 4903 42 1152 447 162 64 20 263 859 404 263 332 609 812 449 273 252 223 127 134 868 712 166 411 78
internal_value=0 1.73424 -1.91939 2.75618 2.66837 -2.19483 0.206458 3.20844 0.139567 0.398292 2.7326 6.55722 1.76495 3.60013 4.212 2.74983 1.30374 1.49909 0.726749 1.08097 1.53781 1.95217 4.82968 6.71502 1.95749 -1.69779 -1.45572 -0.0489314 1.46453 4.27253
internal_weight=0 12323 11027 7376 7292 9863 4947 4549 4905 1164 246 84 2743 3438 1984 1454 595 2480 2644 2197 1748 1475 1580 350 1871 4960 4092 878 1223 1230
internal_count=23350 12323 11027 7376 7292 9863 4947 4549 4905 1164 246 84 2743 3438 1984 1454 595 2480 2644 2197 1748 1475 1580 350 1871 4960 4092 878 1223 1230
is_linear=0
shrinkage=0.0957982


Tree=11
num_leaves=31
num_cat=0
split_feature=15 25 18 7 27 26 4 0 1 1 4 4 16 2 2 6 0 2 4 0 1 4 2 1 0 1 18 11 4 25
split_gain=6.93183e+06 1.71579e+06 638600 534198 441529 469934 264097 324755 380450 323711 213591 213150 202346 200871 172514 165347 164709 282634 147445 143080 288995 141238 137931 129528 123777 185740 166259 120835 119148 113510
threshold=1.0000000180025095e-35 0.49484469067562392 0.37995338589716521 0.54166666666666674 0.42351656339675264 0.76121986575099509 0.050824175824175838 0.0052041633306645326 0.027638190954773875 0.0025125628140703522 0.67994505494505508 0.95467032967032983 1.0000000180025095e-35 0.013931623931623935 0.0074358974358974374 0.30555555555555564 0.0044035228182546038 0.012051282051282053 0.55906593406593419 0.002802241793434748 0.057788944723618098 0.77335164835164849 0.0064102564102564118 0.017587939698492466 0.0084067253803042433 0.0058626465661641555 0.7164548060064394 0.030777513057820952 0.94093406593406614 0.3829491331105111
decision_type=2 2 2 2 2 2 2 2 2 2 2 2 2 2 2 2 2 2 2 2 2 2 2 2 2 2 2 2 2 2
left_child=2 3 16 4 22 6 13 8 18 29 23 15 -13 -6 -11 24 17 28 -8 20 27 -10 -2 -3 25 26 -4 -12 -1 -9
right_child=1 10 11 -5 5 -7 7 9 21 14 19 12 -14 -15 -16 -17 -18 -19 -20 -21 -22 -23 -24 -25 -26 -27 -28 -29 -30 -31
leaf_value=-1.4787949098947435 2.0553167269131198 0.26438288878479699 0.19343511410362202 8.6570686933848737 2.4794312093249791 -0.39757815155939336 3.7224566297927955 6.4114912428773101 1.9975723206778797 -0.10781452002323705 2.2561441206087038 -3.8211510617387061 2.7598922669302479 -0.10710030285084993 2.7399443123772045 4.8629188400304768 -3.1686325579469758 -2.4138745647941073 5.550789309271507 -0.85906969136386924 -0.15349755627109066 4.3269299722038825 -1.15786775574262 -1.0385147141367286 -2.7782068739445438 -1.1470742996411443 5.1300134571025051 6.2050337075074999 0.079244214385314649 2.7425381548218501
leaf_weight=2067 170 1203 409 124 586 473 1217 93 1409 698 506 47 296 494 264 45 1274 4551 740 297 517 313 422 1614 280 1436 75 92 547 1091
leaf_count=2067 170 1203 409 124 586 473 1217 93 1409 698 506 47 296 494 264 45 1274 4551 740 297 517 313 422 1614 280 1436 75 92 547 1091
internal_value=0 1.57029 -1.73581 2.38729 2.28623 2.48838 2.68882 2.94651 3.49989 1.9878 0.00195897 -0.410146 1.79439 1.28004 0.656389 -0.756024 -2.14003 -1.95406 4.42607 0.967555 1.47129 2.43431 -0.201443 -0.475561 -0.881815 -0.594079 1.00682 2.90509 -1.14568 3.05214
internal_weight=0 12323 11027 8094 7970 7378 6905 5825 3679 2146 4229 2588 343 1080 962 2245 8439 7165 1957 1412 1115 1722 592 2817 2200 1920 484 598 2614 1184
internal_count=23350 12323 11027 8094 7970 7378 6905 5825 3679 2146 4229 2588 343 1080 962 2245 8439 7165 1957 1412 1115 1722 592 2817 2200 1920 484 598 2614 1184
is_linear=0
shrinkage=0.0957982


Tree=12
num_leaves=31
num_cat=0
split_feature=15 18 18 8 1 0 4 1 18 27 13 2 7 2 0 3 3 25 4 1 4 4 26 25 26 3 3 0 3 4
split_gain=5.67162e+06 1.42401e+06 535762 372922 321453 294614 325124 325795 204683 202172 193168 189803 198747 189553 179889 198961 156225 141705 202926 129678 121581 115356 114518 109812 186979 113532 224273 176257 108091 161433
threshold=1.0000000180025095e-35 0.33935407651484401 0.5583215101041662 0.43750000000000006 1.0000000180025095e-35 0.0044035228182546038 0.11401098901098904 0.12646566164154108 0.22717602398260686 0.47827846816245062 0.95454545454545459 0.061282051282051296 0.62500000000000011 0.034273504273504278 0.0068054443554843884 0.0046012269938650319 0.34049079754601236 0.41326148304385418 0.38873626373626385 0.027638190954773875 0.20192307692307698 0.47115384615384626 0.77496463507582558 0.3829491331105111 0.63477476321592985 0.85429447852760754 0.5383435582822087 0.0068054443554843884 0.010736196319018407 0.97939560439560458
decision_type=2 2 2 2 2 2 2 2 2 2 2 2 2 2 2 2 2 2 2 2 2 2 2 2 2 2 2 2 2 2
left_child=2 11 8 4 23 6 10 9 -1 -8 -6 12 14 -11 15 20 28 -4 -19 -20 -2 -17 -10 24 -3 26 27 -25 29 -7
right_child=1 3 17 -5 5 16 7 -9 22 13 -12 -13 -14 -15 -16 21 -18 18 19 -21 -22 -23 -24 25 -26 -27 -28 -29 -30 -31
leaf_value=-2.2347440180832625 -0.44098019703817193 3.1915792265527849 -0.1360134136950564 5.9594060256200114 0.70946363852055272 0.82083144404271169 1.0353719892810389 0.68939681517652718 -1.1511882366394883 2.9454596175564567 8.3153674795908969 -1.195275065049193 7.5330927307068896 5.0116768405331777 -1.2275864149547218 0.57450819853960799 4.8978479374584385 -0.45247289545652886 7.1612895171813058 0 0.78637028031576472 3.7508720255154158 -2.535896005089763 4.2403146063684689 12.525775294422216 -0.28377871935054938 6.8684354817752427 1.7610824665027349 -0.4760547794073467 6.9294247840719967
leaf_weight=5009 1156 66 941 248 1212 804 326 556 4188 1224 31 781 35 694 558 197 76 102 86 35 1995 271 666 502 34 73 155 641 646 42
leaf_count=5009 1156 66 941 248 1212 804 326 556 4188 1224 31 781 35 694 558 197 76 102 86 35 1995 271 666 502 34 73 155 641 646 42
internal_value=0 1.42097 -1.56954 2.27101 2.13831 1.8001 2.23435 2.80997 -1.79924 3.32645 0.921294 0.169082 0.426763 3.70527 0.360793 0.611179 0.667654 0.360527 2.53015 5.18001 0.330141 2.45824 -1.34557 3.41339 6.65082 3.15852 3.36665 2.86933 0.436215 1.1547
internal_weight=0 12323 11027 7330 7082 5611 4043 2800 9863 2244 1243 4993 4212 1918 4177 3619 1568 1164 223 121 3151 468 4854 1471 100 1371 1298 1143 1492 846
internal_count=23350 12323 11027 7330 7082 5611 4043 2800 9863 2244 1243 4993 4212 1918 4177 3619 1568 1164 223 121 3151 468 4854 1471 100 1371 1298 1143 1492 846
is_linear=0
shrinkage=0.0957982


Tree=13
num_leaves=31
num_cat=0
split_feature=15 25 18 7 27 26 18 3 4 1 0 4 28 1 3 2 0 4 1 16 0 27 27 4 3 14 4 26 2 4
split_gain=4.64708e+06 1.22762e+06 439066 387481 326297 347320 216940 175413 174101 166304 161600 204382 176014 143236 237056 133419 126892 155561 140575 132897 119821 119067 130727 117233 115249 138438 116859 114434 110030 99569.7
threshold=1.0000000180025095e-35 0.49484469067562392 0.31773895238973543 0.54166666666666674 0.43326522476584733 0.67557567199421709 0.66145121263319384 0.026073619631901846 0.13598901098901103 0.0025125628140703522 0.010808646917534028 0.96291208791208815 0.18385776528568445 0.0025125628140703522 0.010736196319018407 0.0067521367521367536 0.0036028823058446759 0.15521978021978025 0.041038525963149088 1.0000000180025095e-35 0.0068054443554843884 0.76283292529651459 0.66789203102380423 0.93269230769230793 0.0076687116564417195 0.97899159663865565 0.95741758241758257 0.61740562909739094 0.026752136752136762 0.80082417582417598
decision_type=2 2 2 2 2 2 2 2 2 2 2 2 2 2 2 2 2 2 2 2 2 2 2 2 2 2 2 2 2 2
left_child=2 3 24 4 15 8 16 -8 28 20 11 12 -10 -12 -15 -2 17 -4 19 -19 23 22 -7 -3 25 26 -1 -21 -6 -24
right_child=1 9 6 -5 5 21 7 -9 10 -11 13 -13 -14 14 -16 -17 -18 18 -20 27 -22 -23 29 -25 -26 -27 -28 -29 -30 -31
leaf_value=-1.1487974197802433 1.8470463505031978 1.3014502582303713 -1.6928820316366859 7.3245945883849073 2.0020726139536236 -0.89520588632414499 0.61396288261064569 6.3993423193423249 3.4354945767919278 -0.3057941874603019 2.7113426227032336 6.5252218064232546 1.3433062525024624 2.9628175798131617 -0.83100266022380276 -0.95248338927616016 -2.1187946322276656 -2.9754980137714102 -0.97954851769528817 0.18223602421325066 -0.94516975444698148 -0.51720801386652127 1.2013505692977955 5.2101956190443541 -2.5323817633960566 -1.8566383861198374 1.3010554940226478 2.3932519856715739 0.011580838680670724 3.4327449351288863
leaf_weight=775 228 465 788 124 1047 195 384 56 1896 3517 954 173 501 261 345 488 596 82 894 635 158 409 856 89 1835 4416 225 341 362 255
leaf_count=775 228 465 788 124 1047 195 384 56 1896 3517 954 173 501 261 345 488 596 82 894 635 158 409 856 89 1835 4416 225 341 362 255
internal_value=0 1.28737 -1.41959 1.97848 1.89196 2.08457 -0.574469 1.40671 2.45531 -0.031082 2.77471 3.25362 3.00683 1.972 0.774403 -0.0333903 -0.841772 -0.556421 -0.0873496 0.649051 1.29797 0.875428 1.32599 1.97213 -1.85695 -1.62418 -0.578016 0.975739 1.50439 1.73323
internal_weight=0 12323 11027 8094 7970 7254 3776 440 5539 4229 4130 2570 2397 1560 606 716 3336 2740 1952 1058 712 1715 1306 554 7251 5416 1000 976 1409 1111
internal_count=23350 12323 11027 8094 7970 7254 3776 440 5539 4229 4130 2570 2397 1560 606 716 3336 2740 1952 1058 712 1715 1306 554 7251 5416 1000 976 1409 1111
is_linear=0
shrinkage=0.0957982


Tree=14
num_leaves=31
num_cat=0
split_feature=15 25 18 6 28 27 0 4 3 0 4 1 4 2 0 11 16 3 18 25 0 11 18 0 1 0 3 2 1 2
split_gain=3.80357e+06 1.00541e+06 364018 346047 294218 353494 233975 352906 227921 273566 216869 190937 162939 146633 143469 266777 140158 157362 138153 158904 134642 205652 118473 108134 107224 232592 161984 102001 178122 100005
threshold=1.0000000180025095e-35 0.49484469067562392 0.4595469565457333 0.36111111111111116 0.18385776528568445 0.48043607325811172 0.0036028823058446759 0.3530219780219781 0.34049079754601236 0.022818254603682947 0.95192307692307709 0.20854271356783924 0.46565934065934078 0.012393162393162396 0.0036028823058446759 0.014283423439934025 1.0000000180025095e-35 0.016871165644171782 0.79510919161504012 0.3829491331105111 0.0076060848678943154 0.005715660221753874 0.7164548060064394 1.0000000180025095e-35 0.057788944723618098 0.002802241793434748 0.0046012269938650319 0.036666666666666674 0.0058626465661641555 0.022820512820512829
decision_type=2 2 2 2 2 2 2 2 2 2 2 2 2 2 2 2 2 2 2 2 2 2 2 2 2 2 2 2 2 2
left_child=2 3 20 4 5 13 7 29 18 -10 -6 -5 -3 -2 15 16 -4 -18 19 -8 21 -1 -17 -24 25 26 -14 28 -9 -7
right_child=1 12 14 11 10 6 8 27 9 -11 -12 -13 24 -15 -16 22 17 -19 -20 -21 -22 -23 23 -25 -26 -27 -28 -29 -30 -31
leaf_value=-1.6730254648483736 1.5868157836606753 -0.59758042823640123 -3.3646112524160592 6.5679625188415081 -0.076715929747575851 2.506973849546517 4.8004366725791474 4.6064444188669489 -0.61397386278207011 5.2228479089596673 4.9292187341049498 0.37859955838963588 1.4109531605880754 -0.46300018411151067 -1.8857699966614028 1.6192135914055175 -0.36389662810660783 3.1140876325554991 7.9311402847705477 0.70907292536487654 -2.6161622144283214 -0.48835632054112693 2.0022087237576005 10.204361353416084 -0.20784462431709097 -0.77558839442786054 4.9903758743885183 5.0701250049771245 1.7095630120803806 0.98622541394660934
leaf_weight=6183 583 2219 124 210 1108 1019 93 435 93 273 84 67 648 688 353 218 1159 132 26 1737 1003 1782 38 35 848 364 150 533 406 739
leaf_count=6183 583 2219 124 210 1108 1019 93 435 93 273 84 67 648 688 353 218 1159 132 26 1737 1003 1782 38 35 848 364 150 533 406 739
internal_value=0 1.16521 -1.28378 1.79065 1.66867 1.9184 2.26023 2.80071 1.48896 3.69113 0.264453 5.1457 -0.0275506 0.463026 -0.125036 0.229252 -0.302647 0 1.0427 0.929956 -1.54768 -1.41044 2.87148 6.27958 0.592397 1.19219 2.11311 3.96348 3.23423 1.87938
internal_weight=0 12323 11027 8094 7817 6625 5354 3132 2222 366 1192 277 4229 1271 2059 1706 1415 1291 1856 1830 8968 7965 291 73 2010 1162 798 1374 841 1758
internal_count=23350 12323 11027 8094 7817 6625 5354 3132 2222 366 1192 277 4229 1271 2059 1706 1415 1291 1856 1830 8968 7965 291 73 2010 1162 798 1374 841 1758
is_linear=0
shrinkage=0.0957982


Tree=15
num_leaves=31
num_cat=0
split_feature=15 18 18 6 4 1 6 4 0 1 18 25 27 0 1 3 0 3 27 4 4 1 18 13 0 2 3 6 2 19
split_gain=3.11449e+06 834939 316491 261570 189820 173039 181969 173723 161152 156189 151815 142597 177496 145109 198519 162931 211703 134723 128539 120207 117816 106157 101577 108232 99069.2 157413 98037.5 95173.1 89880.3 86494.1
threshold=1.0000000180025095e-35 0.36280301366687051 0.31773895238973543 0.36111111111111116 0.19368131868131874 0.13819095477386936 0.41666666666666669 0.995879120879121 0.0068054443554843884 0.0041876046901172534 0.71058894821943819 0.3829491331105111 0.63471486305503089 0.0044035228182546038 0.19681742043551093 0.34049079754601236 0.022818254603682947 0.026073619631901846 0.47827846816245062 0.15521978021978025 0.99313186813186838 0.010887772194304859 0.66145121263319384 0.95454545454545459 0.0020016012810248202 0.012051282051282053 0.0046012269938650319 0.30555555555555564 0.054102564102564116 0.2783718990399075
decision_type=2 2 2 2 2 2 2 2 2 2 2 2 2 2 2 2 2 2 2 2 2 2 2 2 2 2 2 2 2 2
left_child=2 5 24 4 22 6 7 8 9 26 20 12 -6 14 18 28 -17 -12 -13 -11 27 -20 23 -3 25 -1 -2 -4 -15 -28
right_child=1 3 10 -5 11 -7 -8 -9 -10 19 17 13 -14 15 -16 16 -18 -19 21 -21 -22 -23 -24 -25 -26 -27 29 -29 -30 -31
leaf_value=-0.60014264063375333 1.1349038017235265 0.46797869767863082 -0.83106896622479498 5.4695609430196388 3.0925523809903321 -1.1106308373495972 6.396603395284906 3.6594634251335667 -1.280854670716338 -0.82256127456329453 0.57931102761675723 0.84991594681317573 10.710386584140201 0.70787917762563712 -0.057577402742246528 -0.53416529307671079 4.8403478892055576 6.028155693375318 3.9321761416800802 0.51536393989854712 1.5131868033309634 2.3264867112652126 2.4103514934814281 5.826517490432277 -2.1791585117733279 -1.6972570151374844 1.0129577065363224 4.0353746755327382 6.8394921850449446 6.6694767462384013
leaf_weight=1893 705 1780 3227 172 323 838 45 138 572 881 247 334 33 1627 265 88 219 52 712 2020 215 1051 344 35 1743 3615 56 35 22 63
leaf_count=1893 705 1780 3227 172 323 838 45 138 572 881 247 334 33 1627 265 88 219 52 712 2020 215 1051 344 35 1743 3615 56 35 22 63
internal_value=0 1.05518 -1.1609 1.74241 1.64499 0.146242 0.385746 0.318982 0.206441 0.440169 -0.442512 1.99145 3.88152 1.83035 2.34433 1.19913 3.24235 1.60778 2.65669 0.102427 -0.624667 2.98761 0.885633 0.585051 -1.53229 -1.3238 1.60479 -0.771782 0.805482 4.19698
internal_weight=0 12323 11027 7005 6833 5318 4480 4435 4297 3725 3776 4674 356 4318 2362 1956 307 299 2097 2901 3477 1763 2159 1815 7251 5508 824 3262 1649 119
internal_count=23350 12323 11027 7005 6833 5318 4480 4435 4297 3725 3776 4674 356 4318 2362 1956 307 299 2097 2901 3477 1763 2159 1815 7251 5508 824 3262 1649 119
is_linear=0
shrinkage=0.0957982


Tree=16
num_leaves=31
num_cat=0
split_feature=15 25 19 7 26 26 1 0 11 0 4 11 4 6 18 3 18 11 17 27 1 4 27 2 0 0 3 0 1 1
split_gain=2.55158e+06 720479 282219 272684 234032 231451 163749 148322 174241 146251 204732 186514 140696 134235 134022 120447 118170 115484 107627 112239 122885 132949 102103 92949.4 128572 80969.2 79925.8 72079.7 74419.9 68963.7
threshold=1.0000000180025095e-35 0.50248987214299501 0.69579070085530781 0.54166666666666674 0.42634155594826956 0.76121986575099509 0.21189279731993302 0.0036028823058446759 0.020583249335654728 0.0052041633306645326 0.68543956043956056 0.039872170805461384 0.41620879120879128 0.36111111111111116 0.7164548060064394 0.0076687116564417195 0.79510919161504012 0.016139008521946305 1.0000000180025095e-35 0.77178671781760511 0.03768844221105528 0.76785714285714302 0.4318466128316914 0.0028205128205128212 0.0076060848678943154 1.0000000180025095e-35 0.038343558282208597 0.0036028823058446759 0.057788944723618098 0.012562814070351761
decision_type=2 2 2 2 2 2 2 2 2 2 2 2 2 2 2 2 2 2 2 2 2 2 2 2 2 2 2 2 2 2
left_child=2 3 23 4 -2 6 9 8 13 10 15 16 29 18 -10 -6 -11 27 19 20 21 -4 -12 24 -1 -16 -13 28 -14 -3
right_child=1 12 7 -5 5 -7 -8 -9 14 11 22 26 17 -15 25 -17 -18 -19 -20 -21 -22 -23 -24 -25 -26 -27 -28 -29 -30 -31
leaf_value=-0.27166124143868886 -1.4315372948990428 7.5574008066567696e-05 0.11750820420451452 5.9293597629595327 1.5507721027440631 -0.50352576498161339 -0.30202017928304414 -1.7059829364318746 0.85407343960472715 0.21738745712060056 0 0.91747312484572263 1.0984135578416701 6.3777420053905081 1.7003777033945688 4.4588966266906649 7.4880744746759467 2.3342439382483398 -2.755217300290528 -1.5473284485200334 -0.67458900233502572 2.7731930070253057 3.4424029718004627 -1.6031073189967215 -2.2608871591822561 9.2334353842491836 2.8148764200436043 -1.3448183710473871 -0.21186000552349787 -1.1617169393030562
leaf_weight=1271 254 731 687 125 3549 491 372 652 412 1352 79 368 747 25 36 143 20 258 180 536 1097 238 1026 5461 401 31 588 247 809 1164
leaf_count=1271 254 731 687 125 3549 491 372 652 412 1352 79 368 747 25 36 143 20 258 180 536 1097 238 1026 5461 401 31 588 247 809 1164
internal_value=0 0.956375 -1.04946 1.46015 1.38933 1.48155 1.61412 -0.386711 -0.115123 1.71683 2.0238 1.07558 -0.104484 -0.413061 1.56141 1.66977 0.342851 0.437633 -0.484409 -0.316186 0.00154001 0.823519 3.18694 -1.40852 -0.761116 5.55274 2.10597 0.154596 0.405439 -0.703905
internal_weight=0 12323 11027 8367 8242 7988 7497 3894 3242 7125 4797 2328 3956 2763 479 3692 1372 2061 2738 2558 2022 925 1105 7133 1672 67 956 1803 1556 1895
internal_count=23350 12323 11027 8367 8242 7988 7497 3894 3242 7125 4797 2328 3956 2763 479 3692 1372 2061 2738 2558 2022 925 1105 7133 1672 67 956 1803 1556 1895
is_linear=0
shrinkage=0.0957982


Tree=17
num_leaves=31
num_cat=0
split_feature=15 25 8 28 25 27 26 4 0 4 4 6 1 2 2 4 0 3 1 3 0 2 27 2 27 25 27 0 1 3
split_gain=2.08755e+06 591258 239431 286281 237513 227502 182041 167743 226947 150819 143319 129728 126977 131363 114460 114263 114114 142976 119971 107585 183045 102508 98488.6 91341.8 102326 91167 90763.2 94424.7 155728 105343
threshold=1.0000000180025095e-35 0.49484469067562392 0.43750000000000006 0.18385776528568445 0.49710671953443969 0.48043607325811172 0.47651052143223188 0.050824175824175838 0.0044035228182546038 0.98763736263736279 0.995879120879121 0.30555555555555564 0.20854271356783924 0.0026495726495726502 0.012393162393162396 0.15521978021978025 1.0000000180025095e-35 0.029141104294478529 0.014237855946398661 0.34049079754601236 0.022818254603682947 0.018376068376068384 0.64872518034016491 0.00076923076923076945 0.5160929884003026 0.38204603426900979 0.77178671781760511 0.0036028823058446759 0.02261306532663317 0.026073619631901846
decision_type=2 2 2 2 2 2 2 2 2 2 2 2 2 2 2 2 2 2 2 2 2 2 2 2 2 2 2 2 2 2
left_child=4 2 3 5 6 14 -1 21 16 11 -5 26 13 -4 -2 -3 17 -9 -18 25 -21 -7 23 24 -17 -10 27 28 29 -8
right_child=1 15 12 10 -6 7 9 8 19 -11 -12 -13 -14 -15 -16 22 18 -19 -20 20 -22 -23 -24 -25 -26 -27 -28 -29 -30 -31
leaf_value=-2.2183808279407891 1.2918667153927139 -0.8726711879322383 -0.43680031991585488 -0.40333336559480837 -1.3809439223399136 1.2821183311306306 0.43519467403619072 1.6754552900512885 3.9772794798469557 1.4992358394041196 5.6382460354996757 3.3785951010510695 0 5.3263033633435839 -0.52117619968779116 0.77273017378014819 3.7043262035308393 -5.7228820884354636 2.1159212448672311 -0.7497308989320387 4.029889348187143 -0.91660233020907622 -1.3618903691076691 0.23560238772375117 4.8369477097078066 0.67755809392212574 -1.5090736041858062 -1.3782283033178648 -0.69463736564028022 3.7799468546945212
leaf_weight=505 583 1137 35 1069 5693 516 1171 555 83 388 36 77 64 265 688 210 997 23 938 93 263 302 307 2489 86 1584 736 648 1714 95
leaf_count=505 583 1137 35 1069 5693 516 1171 555 83 388 36 77 64 265 688 210 997 23 938 93 263 302 307 2489 86 1584 736 648 1714 95
internal_value=0 0.865469 1.34515 1.2281 -0.948828 1.46649 -0.483923 1.74071 1.96966 -0.298197 -0.184219 -0.459788 3.76844 4.59242 0.296086 -0.0482763 2.5842 1.33852 2.94565 1.19602 2.73021 0.447304 0.249001 0.433773 2.03004 0.855575 -0.532633 -0.328983 -0.0941096 0.704008
internal_weight=0 12323 8094 7730 11027 6625 5334 5354 4536 4829 1105 4441 364 300 1271 4229 2513 578 1935 2023 356 818 3092 2785 296 1667 4364 3628 2980 1266
internal_count=23350 12323 8094 7730 11027 6625 5334 5354 4536 4829 1105 4441 364 300 1271 4229 2513 578 1935 2023 356 818 3092 2785 296 1667 4364 3628 2980 1266
is_linear=0
shrinkage=0.0957982


Tree=18
num_leaves=31
num_cat=0
split_feature=15 18 18 4 25 6 26 4 27 26 28 4 6 12 18 26 3 25 27 25 18 2 26 4 27 6 6 27 4 11
split_gain=1.70824e+06 510499 204129 219651 194106 152576 148740 124372 116768 115507 107771 120319 106377 98038.2 92131.1 85106.6 85101.6 144166 79051.1 150792 79384 118960 78852.2 77418.9 84301.9 71265.9 70747.1 67780.5 96017.7 202514
threshold=1.0000000180025095e-35 0.4820040000546032 0.18350123790677897 0.93269230769230793 0.49601627074008198 0.36111111111111116 0.47651052143223188 0.98763736263736279 0.40542420646460192 0.817399665213138 0.18385776528568445 0.94917582417582436 0.30555555555555564 1.0000000180025095e-35 0.79510919161504012 0.5755542796536447 0.0076687116564417195 0.74732358096660445 0.62621362670234515 0.38388098789618758 0.60804919515208755 0.020769230769230772 0.35419409757661674 0.050824175824175838 0.77178671781760511 0.47222222222222227 0.30555555555555564 0.5978244805472458 0.34203296703296709 0.00017181343351965579
decision_type=2 2 2 2 2 2 2 2 2 2 2 2 2 2 2 2 2 2 2 2 2 2 2 2 2 2 2 2 2 2
left_child=4 2 13 9 6 10 -1 12 -5 22 14 26 23 -2 18 -7 -15 -18 27 -20 21 -21 -4 -8 -25 -24 -12 28 -3 -30
right_child=1 5 3 8 -6 15 7 -9 -10 -11 11 -13 -14 16 -16 -17 17 -19 19 20 -22 -23 25 24 -26 -27 -28 -29 29 -31
leaf_value=-2.0105276308380038 0.88785271002103228 0.74438159006902316 -1.9229752300263523 -1.5074928084968982 -1.2460252068254645 10.078432695850498 -1.5145721894688704 1.3698639605303926 3.084823598599602 -2.2565163219616919 -0.53507172746203657 4.5692704599897045 3.0594053764223479 -1.0062134257265136 4.9615820138367503 3.3341712625363509 0 8.4770036071081307 6.550862372644505 0.60892898685426067 3.634158100027173 3.229917431691069 0.53389486862988089 -0.098094344791135268 -1.3026238225094577 4.8182861074888788 1.6605685897242006 0.39860748328393047 6.4708517254571047 1.7635758737696128
leaf_weight=500 381 734 115 51 5731 26 583 386 438 139 496 58 77 1580 84 107 132 21 76 513 227 247 5052 3095 655 36 183 605 96 926
leaf_count=500 381 734 115 51 5731 26 583 386 438 139 496 58 77 1580 84 107 132 21 76 513 227 247 5052 3095 655 36 183 605 96 926
internal_value=0 0.783295 0.322546 0.616308 -0.857914 1.61487 -0.434211 -0.265545 2.56529 0.433905 1.50747 0.419538 -0.413246 -0.478757 1.73048 4.86315 -0.790399 1.30785 1.64419 2.35363 2.00464 1.48879 0.509841 -0.480036 -0.313805 0.568914 0.0307709 1.3159 1.62081 2.23046
internal_weight=0 12323 7945 5831 11027 4378 5296 4796 489 5342 4245 737 4410 2114 3508 133 1733 153 3424 1063 987 760 5203 4333 3750 5088 679 2361 1756 1022
internal_count=23350 12323 7945 5831 11027 4378 5296 4796 489 5342 4245 737 4410 2114 3508 133 1733 153 3424 1063 987 760 5203 4333 3750 5088 679 2361 1756 1022
is_linear=0
shrinkage=0.0957982


Tree=19
num_leaves=31
num_cat=0
split_feature=16 25 15 18 7 26 26 3 1 4 2 2 18 4 26 2 4 2 18 15 4 11 12 26 27 26 26 25 4 1
split_gain=1.12132e+06 423296 252525 196510 184282 157851 155450 121850 110872 101595 137700 106425 100256 98780.7 147531 95564.6 92066.4 100098 88100.3 82427.1 89700 81961.1 75246.3 69111.4 66399.6 62911 77695.3 61683 61552.8 56940.4
threshold=1.0000000180025095e-35 0.49484469067562392 1.0000000180025095e-35 0.5139723191881177 0.54166666666666674 0.76121986575099509 0.42634155594826956 1.0000000180025095e-35 0.21859296482412063 0.050824175824175838 0.008461538461538463 0.016666666666666673 0.14049333855790988 0.90247252747252771 0.63598715588211985 0.073076923076923095 0.14148351648351654 0.0028205128205128212 0.60804919515208755 1.0000000180025095e-35 0.92445054945054961 0.0064945477870429766 0.75000000000000011 0.61190335927886974 0.75061140257690095 0.57679961039217187 0.71161735867475795 0.46923518938569592 0.12774725274725279 0.18509212730318261
decision_type=2 2 2 2 2 2 2 2 2 2 2 2 2 2 2 2 2 2 2 2 2 2 2 2 2 2 2 2 2 2
left_child=1 2 7 12 5 6 -4 21 9 10 -8 -11 -2 -5 23 19 -14 25 -16 -3 24 -1 -22 -15 28 -18 -27 -7 -21 -6
right_child=3 15 4 13 29 27 8 -9 -10 11 -12 -13 16 14 18 -17 17 -19 -20 20 22 -23 -24 -25 -26 26 -28 -29 -30 -31
leaf_value=-0.97212493410777445 -1.3613021015059217 -1.949291873624476 -1.1964905528999883 0 5.7227387347219052 0.026098723079330179 1.6873036058021937 -3.3464345763359664 -0.4066511890005951 1.1528961423599118 -0.43456792599145466 2.0241225470049349 -1.3254476563822006 2.7627332791614108 0 -1.501523896201886 -0.42444935917131832 -0.69710380747581557 8.3817689534653734 -0.64744767648155777 2.1020916351725432 4.6253565627015938 -0.7051461059874411 -0.91055511611910345 -2.0075131244244364 1.9657180539037289 -0.085623777998773798 -2.3273429413722528 0.28878448953626551 0
leaf_weight=71 2739 188 240 889 103 336 486 175 340 3597 640 2194 1510 80 20 428 566 3960 45 888 335 33 106 101 153 332 311 137 2326 21
leaf_count=71 2739 188 240 889 103 336 486 175 340 3597 640 2194 1510 80 20 428 566 3960 45 888 335 33 106 101 153 332 311 137 2326 21
internal_value=0 0.611349 1.01208 -0.722472 1.11125 1.05081 1.15878 -1.7912 1.23943 1.32311 0.465346 1.48653 -0.866669 0.457205 2.15179 -0.142903 -0.660826 -0.462805 6.06257 0 0.0998892 0.654573 1.38479 0.616627 -0.0632182 0.289046 0.945912 -0.619694 0.0241411 4.80348
internal_weight=0 12797 8373 10553 8094 7970 7497 279 7257 6917 1126 5791 9418 1135 246 4424 6679 5169 65 3996 3808 104 441 181 3367 1209 643 473 3214 124
internal_count=23350 12797 8373 10553 8094 7970 7497 279 7257 6917 1126 5791 9418 1135 246 4424 6679 5169 65 3996 3808 104 441 181 3367 1209 643 473 3214 124
is_linear=0
shrinkage=0.0957982


Tree=20
num_leaves=31
num_cat=0
split_feature=15 18 0 1 18 18 6 4 0 4 13 3 25 4 14 6 18 4 2 1 3 4 27 28 4 0 18 25 12 25
split_gain=1.14704e+06 358884 161903 218600 194497 144571 120217 105115 104720 218052 127332 157543 106408 100068 96664.2 92368.3 89235.9 88736.5 119579 133944 132783 173644 112811 96903.9 136770 152664 100072 77909.2 77569.5 76397
threshold=1.0000000180025095e-35 0.4820040000546032 0.0036028823058446759 0.010887772194304859 0.66145121263319384 0.18350123790677897 0.36111111111111116 0.90796703296703318 0.0068054443554843884 0.85302197802197821 0.68181818181818199 1.0000000180025095e-35 0.41134326984487762 0.20192307692307698 0.97058823529411786 0.30555555555555564 0.79510919161504012 0.34203296703296709 0.016666666666666673 0.0041876046901172534 0.010736196319018407 0.98763736263736279 0.5365236865894546 0.18385776528568445 0.75686813186813207 1.0000000180025095e-35 0.71058894821943819 0.56941869451670268 1.0000000180025095e-35 0.38589287740671457
decision_type=2 2 2 2 2 2 2 2 2 2 2 2 2 2 2 2 2 2 2 2 2 2 2 2 2 2 2 2 2 2
left_child=2 5 3 4 13 28 16 -6 9 10 27 -12 -11 -1 -14 -5 17 -3 19 22 21 -21 -19 24 25 -20 -26 -7 -2 -24
right_child=1 6 -4 15 7 8 -8 -9 -10 12 11 -13 14 -15 -16 -17 -18 18 23 20 -22 -23 29 -25 26 -27 -28 -29 -30 -31
leaf_value=-0.94520379601117199 0.79526125328803443 0.57538723972601291 -1.5334291772347213 -0.92424535362552318 1.3969577013462364 0.45992153122972018 4.225448588711231 6.6088594623230579 -0.3709500750951607 -1.6644114826374741 1.163596669503419 7.6446900614206061 6.0010139789820052 0.2592988458500402 2.1799442166604837 2.414287943992885 4.1479902451239976 -0.67925717050444478 0.47563389779304144 0.41249760624861387 -1.6883855384289352 8.0038921538046921 4.5280598518240494 0.42382117092663907 3.2100618975622752 5.0799058803196511 -0.58482755127091846 -0.89541543329721229 -0.69592915985380877 1.7085170396612845
leaf_weight=890 381 1551 1820 5898 133 3558 133 56 1011 49 160 47 78 2157 500 73 99 150 95 327 268 30 110 188 112 323 131 428 1733 861
leaf_count=890 381 1551 1820 5898 133 3558 133 56 1011 49 160 47 78 2157 500 73 99 150 95 327 268 30 110 188 112 323 131 428 1733 861
internal_value=0 0.642435 -0.702427 -0.535959 0.092875 0.255674 1.33979 3.06876 0.503174 0.690459 0.435483 2.7574 2.36201 -0.086575 2.73824 -0.879856 1.2439 1.16897 1.51613 1.04276 -0.052182 1.12507 1.66943 2.46498 3.01552 4.0822 1.09379 0.309479 -0.41803 2.05192
internal_weight=0 12323 11027 9207 3236 7945 4378 189 5831 4820 4193 207 627 3047 578 5971 4245 4146 2595 1746 625 357 1121 849 661 418 243 3986 2114 971
internal_count=23350 12323 11027 9207 3236 7945 4378 189 5831 4820 4193 207 627 3047 578 5971 4245 4146 2595 1746 625 357 1121 849 661 418 243 3986 2114 971
is_linear=0
shrinkage=0.0957982


Tree=21
num_leaves=31
num_cat=0
split_feature=15 25 8 28 27 25 4 0 1 2 4 3 3 3 0 11 4 16 2 26 3 0 1 4 3 4 0 4 13 25
split_gain=939799 297499 151438 210501 156754 141071 107065 139875 106391 95907.9 95067.4 90403.8 185336 116051 89756.5 165785 95860.2 93887.1 88799.4 86148.8 95164.6 82036.5 139368 99915.1 91545.6 77815.8 100177 77449.6 74084.4 70521.9
threshold=1.0000000180025095e-35 0.50248987214299501 0.43750000000000006 0.18385776528568445 0.43326522476584733 0.51557001493456067 0.048076923076923093 0.010808646917534028 0.29396984924623121 0.0026495726495726502 0.995879120879121 0.17638036809815952 0.15337423312883439 0.23006134969325157 0.0036028823058446759 0.014764501053789061 0.95467032967032983 1.0000000180025095e-35 0.018717948717948723 0.50975688874948599 0.016871165644171782 0.0068054443554843884 0.017587939698492466 0.17719780219780226 1.0000000180025095e-35 0.68543956043956056 1.0000000180025095e-35 0.86950549450549464 0.59090909090909094 0.41904624392583406
decision_type=2 2 2 2 2 2 2 2 2 2 2 2 2 2 2 2 2 2 2 2 2 2 2 2 2 2 2 2 2 2
left_child=5 2 3 4 -2 14 18 25 9 -4 29 12 -9 -13 15 17 -17 -1 -6 -19 -21 22 24 -24 -3 26 -8 -11 -18 -5
right_child=1 21 8 10 6 -7 7 11 -10 27 -12 13 -14 -15 -16 16 28 19 -20 20 -22 -23 23 -25 -26 -27 -28 -29 -30 -31
leaf_value=-2.3032618647705547 -0.26776453882076623 0.27838603132472406 -0.9681841841968839 0.23724093488569439 0.88712983656963473 -1.0194417982749695 0.042079892685303225 0.38885915060554305 -2.2128721900373627 3.1691758830008316 4.3199953717816317 6.0431163820253451 -6.3894379071064886 1.1654390059751465 -1.1377641530955049 0.49804049369880177 1.9976348712168346 -1.2971958741035128 -1.0588663513127048 -0.22347352403658216 1.7940491950693775 -1.3599279257953387 -1.5312232685404636 -0.029274101724359149 2.0461046603342807 2.4999194439847923 1.7124035851280923 8.1769845527735328 7.5699650569220145 -1.288723817371292
leaf_weight=225 755 906 35 496 639 4903 426 1173 30 262 36 50 37 639 1038 608 152 645 318 3198 228 422 547 1679 402 931 1917 39 30 584
leaf_count=225 755 906 35 496 639 4903 426 1173 30 262 36 50 37 639 1038 608 152 645 318 3198 228 422 547 1679 402 931 1917 39 30 584
internal_value=0 0.582577 0.906422 0.815694 1.01427 -0.634742 1.17526 1.34819 2.83042 3.34206 -0.392401 0.677169 0.160576 1.55551 -0.323552 -0.153482 1.11489 -0.391316 0.220436 -0.280452 -0.083206 -0.0976759 0.0481091 -0.407346 0.837258 1.73131 1.41688 3.90708 3.05792 -0.571005
internal_weight=0 12323 8367 8001 6885 11027 6130 5173 366 336 1116 1899 1210 689 6124 5086 790 4296 957 4071 3426 3956 3534 2226 1308 3274 2343 301 182 1080
internal_count=23350 12323 8367 8001 6885 11027 6130 5173 366 336 1116 1899 1210 689 6124 5086 790 4296 957 4071 3426 3956 3534 2226 1308 3274 2343 301 182 1080
is_linear=0
shrinkage=0.0957982


Tree=22
num_leaves=31
num_cat=0
split_feature=18 18 25 16 6 0 0 4 26 4 3 3 0 1 26 2 26 27 25 11 0 3 2 4 27 1 4 3 27 3
split_gain=631325 201071 167674 167628 151448 137760 132805 129591 157719 116151 177050 150474 115028 181511 188556 111093 101352 119446 115342 100745 100161 115574 136029 92211.7 91287 90047.3 83820 165071 78149.8 91497.5
threshold=0.32483720917598052 0.57845905511313578 0.38499922416499649 1.0000000180025095e-35 0.30555555555555564 1.0000000180025095e-35 0.022818254603682947 0.89423076923076938 0.63697356999116306 0.050824175824175838 1.0000000180025095e-35 0.28374233128834364 0.0044035228182546038 0.029313232830820771 0.61872347905272573 0.0026495726495726502 0.7896511745922582 0.38523161969615677 0.59420221991831934 0.053479794740218092 0.0068054443554843884 0.0076687116564417195 0.0019658119658119665 0.14148351648351654 0.52323069715205162 0.041038525963149088 0.7953296703296705 0.0076687116564417195 0.52050410544010373 0.5383435582822087
decision_type=2 2 2 2 2 2 2 2 2 2 2 2 2 2 2 2 2 2 2 2 2 2 2 2 2 2 2 2 2 2
left_child=3 2 6 16 5 7 -2 -3 -9 -4 19 20 13 14 26 -16 17 -1 23 24 21 -12 -23 -19 -11 -20 27 -7 -14 -30
right_child=1 4 9 -5 -6 12 -8 8 -10 10 11 -13 28 -15 15 -17 -18 18 25 -21 -22 22 -24 -25 -26 -27 -28 -29 29 -31
leaf_value=-0.96713539343816257 1.0490876845225765 -1.2912346586917351 -0.62487808207016593 -0.77500736471649334 4.0020172500867046 1.7198917189109142 6.8394500595392582 0 6.8200597761498569 -0.029476302424547903 -0.45319392199618586 3.2478602680060531 -1.0942056011932018 0.29645450197473461 8.1148279169865738 3.3872538055187706 -1.3709346133627511 -0.20983325784622903 0.21231970958830099 2.0354390267065461 -1.1908205995485737 5.1281219678531276 0.57601815700583758 0.94020907666215014 0.97136152208264648 -1.6969775208694386 -0.024712321205215139 7.7126609755772568 0.52818764330937829 3.1819493701103596
leaf_weight=815 113 387 1271 7010 170 373 61 107 43 1318 1199 108 194 415 82 164 485 884 478 520 900 72 435 2105 2130 406 150 50 757 148
leaf_count=815 113 387 1271 7010 170 373 61 107 43 1318 1199 108 194 415 82 164 485 884 478 520 900 72 435 2105 2130 406 150 50 757 148
internal_value=0 0.527544 0.27584 -0.469587 1.19393 1.01961 3.21593 -0.335524 1.99754 0.208727 0.370173 -0.220663 1.33959 1.98094 2.81008 5.06767 -0.0520032 0.0807275 0.306285 0.77897 -0.372895 0.0480821 1.26895 0.59385 0.583457 -0.64436 1.80045 2.49036 0.601151 0.986169
internal_weight=0 11167 8127 12183 3040 2870 174 537 150 7953 6682 2714 2333 1234 819 246 5173 4688 3873 3968 2606 1706 507 2989 3448 884 573 423 1099 905
internal_count=23350 11167 8127 12183 3040 2870 174 537 150 7953 6682 2714 2333 1234 819 246 5173 4688 3873 3968 2606 1706 507 2989 3448 884 573 423 1099 905
is_linear=0
shrinkage=0.0957982


Tree=23
num_leaves=31
num_cat=0
split_feature=15 18 7 1 0 4 0 11 4 3 3 0 18 2 3 3 3 3 2 4 2 4 4 6 11 16 19 0 4 18
split_gain=675931 220499 136487 136379 159121 125221 118695 168089 107674 105547 98474.4 96164.8 134716 88211.1 87700.7 120478 85077 149003 126933 117487 88087.1 80203.6 232154 78732.6 76972.7 72845.8 79248.3 71881.8 68662.2 67262.3
threshold=1.0000000180025095e-35 0.22856439641836077 0.54166666666666674 0.0092127303182579588 0.0044035228182546038 0.96016483516483542 0.0076060848678943154 0.019918904059378729 0.95467032967032983 0.17638036809815952 0.85429447852760754 1.0000000180025095e-35 0.7164548060064394 0.034615384615384624 0.5383435582822087 0.23006134969325157 0.013803680981595094 0.0076687116564417195 0.018034188034188041 0.77335164835164849 0.008461538461538463 0.75686813186813207 0.55082417582417598 0.36111111111111116 0.02443187024649501 1.0000000180025095e-35 0.69579070085530781 1.0000000180025095e-35 0.995879120879121 0.68867149283413631
decision_type=2 2 2 2 2 2 2 2 2 2 2 2 2 2 2 2 2 2 2 2 2 2 2 2 2 2 2 2 2 2
left_child=6 -2 3 4 5 11 7 23 29 -6 14 -3 13 -13 15 -11 17 19 -18 27 -19 22 -20 25 -10 -1 -27 -5 -7 -9
right_child=1 2 -4 16 9 28 -8 8 24 10 -12 12 -14 -15 -16 -17 18 20 21 -21 -22 -23 -24 -25 -26 26 -28 -29 -30 -31
leaf_value=-2.0229716632909667 -0.17450133811582527 0 3.9275187182036153 -0.84676509443035008 0 6.6510088375457332 -1.429074460821997 -0.15604396212046021 7.647973676961481 5.4472544313742919 -1.2936797679219225 1.2645729756825743 5.4531169151722603 3.6887587989635731 3.7011012129659333 0.37645765390963626 -2.2618997410891497 -0.39466924544281701 -1.707859567381083 1.470006269612478 4.9493065970616286 -0.58807188154310075 10.001455635577614 4.2240389092789741 1.5100877651271483 -0.76917048738817018 -0.12350475371706962 0.32568746563120543 1.9186833968022157 2.8476745672959907
leaf_weight=331 3272 342 123 559 1322 74 1234 1039 21 50 93 1202 92 168 186 349 254 30 27 745 104 67 29 29 345 5223 2733 3165 70 72
leaf_count=331 3272 342 123 559 1322 74 1234 1039 21 50 93 1202 92 168 186 349 254 30 27 745 104 67 29 29 345 5223 2733 3165 70 72
internal_value=0 0.494803 0.738827 0.692324 1.11501 1.73505 -0.537569 -0.423169 0.511512 0.501098 1.47184 1.50047 1.83872 1.57821 1.9451 1.07181 0.353291 0.469462 -1.01274 0.369935 3.6203 1.41274 4.10139 -0.59148 1.93486 -0.611145 -0.549782 0.144459 4.51138 0.0243069
internal_weight=0 12323 9051 8928 3948 1948 11027 9793 1477 2000 678 1804 1462 1370 585 399 4980 4603 377 4469 134 123 56 8316 366 8287 7956 3724 144 1111
internal_count=23350 12323 9051 8928 3948 1948 11027 9793 1477 2000 678 1804 1462 1370 585 399 4980 4603 377 4469 134 123 56 8316 366 8287 7956 3724 144 1111
is_linear=0
shrinkage=0.0957982


Tree=24
num_leaves=31
num_cat=0
split_feature=15 25 3 4 0 18 11 1 0 6 1 2 4 2 1 26 18 2 0 3 4 3 4 13 3 3 12 0 16 3
split_gain=553983 192351 111205 106664 104025 97939.1 93429.5 90904 121865 137490 99582.4 91591.4 89770.8 100872 115281 115054 87089.3 79851.1 101904 121175 93232.6 79093.2 77015.1 74382.1 68722.1 76016 68316.8 64313.5 63114 70644.5
threshold=1.0000000180025095e-35 0.48682212641654848 1.0000000180025095e-35 0.20192307692307698 0.0020016012810248202 0.79510919161504012 0.032621643910931926 0.11139028475711894 0.0052041633306645326 0.36111111111111116 0.0041876046901172534 0.007264957264957266 0.38873626373626385 0.032905982905982914 0.0058626465661641555 0.55809495783093166 0.70237973253213848 0.059059829059829073 0.0068054443554843884 0.0046012269938650319 0.47390109890109899 0.096625766871165655 0.90796703296703318 0.95454545454545459 0.026073619631901846 0.85429447852760754 0.05000000000000001 1.0000000180025095e-35 1.0000000180025095e-35 0.04754601226993866
decision_type=2 2 2 2 2 2 2 2 2 2 2 2 2 2 2 2 2 2 2 2 2 2 2 2 2 2 2 2 2 2
left_child=2 5 3 -1 16 7 -5 8 9 12 24 -12 23 14 -14 -15 28 18 19 26 -21 -7 -13 -2 -10 -26 -3 -9 -4 -30
right_child=1 17 4 6 -6 21 -8 27 10 -11 11 22 13 15 -16 -17 -18 -19 -20 20 -22 -23 -24 -25 25 -27 -28 -29 29 -31
leaf_value=-0.72802289009823207 0.56665438956884195 0.97953575993817998 -2.0909137817972829 -0.06317515891231873 -1.4467101729904059 5.508469090951416 1.2387848308460119 -1.5279655237327505 -0.041690908786215133 4.6385509361126873 -1.1599772298560189 0.27747264328829496 2.2295322313689745 0.46186763112428114 0.26262763279145118 3.6001321931301051 1.8958017799063323 -0.9277581595915696 -1.114825257962951 0.20560092054366194 3.1160981809760262 0 5.6512818219123382 4.2571258759991037 1.6145291807173758 -1.1711692453901741 -0.14361144582390914 0.266400973672484 -0.56923477129395628 1.9098298036456338
leaf_weight=1809 2430 635 252 2471 1541 70 628 235 558 102 633 222 465 170 725 380 128 777 509 202 236 35 28 52 769 93 2209 788 4094 104
leaf_count=1809 2430 635 252 2471 1541 70 628 235 558 102 633 222 465 170 725 380 128 777 509 202 236 35 28 52 769 93 2209 788 4094 104
internal_value=0 0.44865 -0.485961 -0.141505 -0.759104 0.739231 0.194944 0.696 0.826131 1.12718 0.252493 -0.533585 1.03673 1.57208 1.0483 2.667 -0.523262 -0.0406115 0.136478 0.336563 1.82038 3.67275 0.975826 0.653351 0.754547 1.29114 0.100838 -0.128636 -0.597506 -0.502873
internal_weight=0 12323 11027 4908 6119 7755 3099 7650 6627 4324 2303 883 4222 1740 1190 550 4578 4568 3791 3282 438 105 250 2482 1420 862 2844 1023 4450 4198
internal_count=23350 12323 11027 4908 6119 7755 3099 7650 6627 4324 2303 883 4222 1740 1190 550 4578 4568 3791 3282 438 105 250 2482 1420 862 2844 1023 4450 4198
is_linear=0
shrinkage=0.0957982


Tree=25
num_leaves=31
num_cat=0
split_feature=18 15 25 26 27 15 8 28 27 4 2 0 1 3 3 1 4 0 18 3 27 4 4 16 0 1 0 15 27 26
split_gain=401064 168790 115435 132779 143237 100614 94873.7 100992 85272.5 77938.1 113484 170671 120573 111761 90248.4 79643.4 99073.4 81272.5 76775.5 73405.8 72157.9 71824.5 70168.2 88015.3 75691.6 115472 66223.8 65507.4 65055.7 64001.8
threshold=0.32483720917598052 1.0000000180025095e-35 0.57669840247691806 0.77496463507582558 0.3751647042335407 1.0000000180025095e-35 0.43750000000000006 0.18385776528568445 0.51097885013785327 0.19917582417582422 0.044358974358974367 0.0012009607686148921 0.0041876046901172534 0.010736196319018407 1.0000000180025095e-35 0.025963149078726971 0.179945054945055 0.0044035228182546038 0.66145121263319384 0.023006134969325156 0.5978244805472458 0.99313186813186838 0.15521978021978025 1.0000000180025095e-35 0.0036028823058446759 0.041038525963149088 0.0068054443554843884 1.0000000180025095e-35 0.56775850579014542 0.56656525586868167
decision_type=2 2 2 2 2 2 2 2 2 2 2 2 2 2 2 2 2 2 2 2 2 2 2 2 2 2 2 2 2 2
left_child=2 22 3 4 -1 19 7 8 29 15 12 20 26 -14 -13 16 17 -10 -9 -6 -12 -4 -2 -24 25 28 -11 -23 -25 -3
right_child=1 6 21 -5 5 -7 -8 18 9 10 11 14 13 -15 -16 -17 -18 -19 -20 -21 -22 27 23 24 -26 -27 -28 -29 -30 -31
leaf_value=-0.89952964127287383 -0.77734417175890524 0.32376536218175972 -0.96307141989020939 -1.0082033276100042 -0.023297027762789989 0.6478582854025432 2.5503677484886373 -0.83534247699787867 1.5143705589547845 2.4764783823958334 2.3451197041249396 6.1013214653266843 0.92575504193437175 -1.0166854837127564 0 -0.68428280389263563 -3.8481989432435011 -0.58020897088473911 1.2657521798747462 -1.8473235279503848 -0.46981421120464906 -0.019076123428484131 -1.9137598774337685 0.51708475495873774 -0.7449471594435968 -0.22008509857417832 1.0693790855178507 3.6733509524502259 2.0250790988611547 -1.9553733284791694
leaf_weight=1342 1020 1495 3285 1470 3002 2562 248 675 753 493 205 139 761 416 29 444 37 204 203 218 124 254 174 636 498 925 1060 50 508 120
leaf_count=1342 1020 1495 3285 1470 3002 2562 248 675 753 493 205 139 761 416 29 444 37 204 203 218 124 254 174 636 498 925 1060 50 508 120
internal_value=0 0.421819 -0.372924 -0.179521 -0.00576511 0.19856 0.687519 0.61998 0.755432 0.96383 1.22766 2.58132 0.973428 0.222976 5.0934 0.358244 0.843026 1.04813 -0.327237 -0.153194 1.22922 -0.830612 -0.0964414 0.1503 0.298265 0.55869 1.52955 0.537531 1.20439 0.141606
internal_weight=0 11167 12183 8594 7124 5782 7406 7158 6280 4665 3227 497 2730 1177 168 1438 994 957 878 3220 329 3589 3761 2741 2567 2069 1553 304 1144 1615
internal_count=23350 11167 12183 8594 7124 5782 7406 7158 6280 4665 3227 497 2730 1177 168 1438 994 957 878 3220 329 3589 3761 2741 2567 2069 1553 304 1144 1615
is_linear=0
shrinkage=0.0957982


Tree=26
num_leaves=31
num_cat=0
split_feature=15 18 1 3 4 8 9 26 4 0 3 11 3 25 0 3 3 12 27 0 3 0 4 25 25 4 18 4 1 0
split_gain=377173 138087 121599 88731 84099.6 93240.4 82467.5 126872 82106.2 78995 78935.5 77351 73129.1 94030.2 146553 113117 92785 73618.8 72569.9 91042.6 104919 90155.6 70228.7 69815.4 104835 63440.7 62342.3 101961 62334.6 64732.4
threshold=1.0000000180025095e-35 0.57845905511313578 0.0041876046901172534 1.0000000180025095e-35 0.67994505494505508 0.56250000000000011 0.25000000000000006 0.57802626161268489 0.20192307692307698 0.0020016012810248202 0.010736196319018407 0.032621643910931926 0.0046012269938650319 0.38388098789618758 0.0060048038430744596 0.34049079754601236 0.28374233128834364 0.58333333333333337 0.63180850796511845 1.0000000180025095e-35 0.019938650306748473 0.010808646917534028 0.96016483516483542 0.51799063960297442 0.43063672136002401 0.47115384615384626 0.70237973253213848 0.90247252747252771 0.10134003350083755 0.0044035228182546038
decision_type=2 2 2 2 2 2 2 2 2 2 2 2 2 2 2 2 2 2 2 2 2 2 2 2 2 2 2 2 2 2
left_child=3 2 12 8 28 10 18 -8 -1 26 -6 -10 22 15 17 -14 -16 25 19 20 -3 -21 -2 24 -24 -15 -5 -28 29 -4
right_child=1 6 4 9 5 -7 7 -9 11 -11 -12 -13 13 14 16 -17 -18 -19 -20 21 -22 -23 23 -25 -26 -27 27 -29 -30 -31
leaf_value=-0.60807227366697714 0.28449888665109874 -0.048546491069723481 0.17516456114436585 -0.50170008017894996 0.66108684631734349 6.249614671556782 7.0276426384830817 1.1071373593764506 -0.03204491567901474 -1.2444580047818461 -0.91971685616793808 1.1513090727014759 10.096288501796147 0 -0.57540919220341069 1.0127642349860535 2.6754528128559167 7.6102788253410649 2.8297723584477468 1.5415482505533613 -5.7949457187322926 0.13182330533973208 0 0 6.4417254683143383 4.0287842140394128 -0.25139837916955576 5.1239752014032636 -0.77011655029237724 -0.86265118883525715
leaf_weight=1809 1723 170 3230 4450 1972 25 53 114 2471 1541 330 628 26 52 302 34 107 37 165 970 36 784 33 67 60 79 81 47 1290 664
leaf_count=1809 1723 170 3230 4450 1972 25 53 114 2471 1541 330 628 26 52 302 34 107 37 165 970 36 784 33 67 60 79 81 47 1290 664
internal_value=0 0.370411 0.214706 -0.400759 0.0189087 0.499494 1.04325 3.13087 -0.0928101 -0.644634 0.425995 0.202018 0.790583 1.68893 1.26486 5.36521 0.234076 3.64577 0.868851 0.692733 -1.16841 0.922599 0.475923 2.40503 4.08826 2.33084 -0.438382 1.60325 -0.193255 0
internal_weight=0 12323 10031 11027 7511 2327 2292 167 4908 6119 2302 3099 2520 637 577 60 409 168 2125 1960 206 1754 1883 160 93 131 4578 128 5184 3894
internal_count=23350 12323 10031 11027 7511 2327 2292 167 4908 6119 2302 3099 2520 637 577 60 409 168 2125 1960 206 1754 1883 160 93 131 4578 128 5184 3894
is_linear=0
shrinkage=0.0957982


Tree=27
num_leaves=31
num_cat=0
split_feature=15 25 8 27 1 25 4 26 0 4 13 5 4 6 4 4 12 27 27 27 4 1 0 25 0 1 27 25 4 3
split_gain=309842 127156 97544.3 83604.7 80348.1 75435.7 65330 65013 70468.6 73657.4 69502.8 68430.5 62859.2 61491.3 57705.3 56209.9 55907.4 54807.1 54779.8 51881 53475.1 51943 122556 51177.8 87002 92671.8 98678.5 107899 70396.6 49368.4
threshold=1.0000000180025095e-35 0.50248987214299501 0.56250000000000011 0.76283292529651459 0.11139028475711894 0.52352209245168535 0.99313186813186838 0.42032130167725518 0.0052041633306645326 0.020604395604395611 0.95454545454545459 0.87745098039215697 0.60302197802197821 0.30555555555555564 0.96291208791208815 0.14148351648351654 0.91666666666666685 0.42351656339675264 0.64872518034016491 0.77178671781760511 0.050824175824175838 0.036013400335008383 0.002802241793434748 0.60090559181650971 0.002802241793434748 0.0058626465661641555 0.5160929884003026 0.55329262793386047 0.99313186813186838 0.013803680981595094
decision_type=2 2 2 2 2 2 2 2 2 2 2 2 2 2 2 2 2 2 2 2 2 2 2 2 2 2 2 2 2 2
left_child=5 2 3 4 7 6 13 -2 9 10 -9 16 -4 17 -11 -3 -10 -1 23 20 -19 22 -22 24 25 26 27 -17 29 -25
right_child=1 15 12 -5 -6 -7 -8 8 11 14 -12 -13 -14 -15 -16 18 -18 19 -20 -21 21 -23 -24 28 -26 -27 -28 -29 -30 -31
leaf_value=-1.0565220516762241 -0.95734579714678292 -0.73707140414128691 0.56418089670921123 -0.77985085357669781 -0.18107060805119965 -0.66763192661026338 0.9217347151136015 -0.20985017109311477 0.62306032632048058 1.0451880643694642 5.392305648157782 -1.8196108967422264 7.2947047543793166 2.3906848475151961 2.7278029724038282 -0.51492450058489747 -0.94121004444831824 -0.85621353891876006 -1.1693465003365793 -0.87029058256252567 0.91803396832733519 -0.29905683584351961 -0.59941086928495602 -0.84746338298285828 -0.59906392763432825 0.49206142882603743 5.4198251737119358 4.0588395256239149 3.8376695626712403 2.2431816437664716
leaf_weight=734 198 983 32 420 1042 4465 474 565 1964 3530 20 125 32 78 214 115 225 625 279 810 1459 1664 718 696 474 1179 78 73 32 47
leaf_count=734 198 983 32 420 1042 4465 474 565 1964 3530 20 125 32 78 214 115 225 625 279 810 1459 1664 718 696 474 1179 78 73 32 47
internal_value=0 0.336292 0.548241 0.516638 0.588193 -0.362659 -0.152209 0.708119 0.760733 0.990972 0 0.321633 4.28312 -0.239056 1.14714 -0.107264 0.453316 -0.276733 0.094855 -0.164496 -0.0321035 0.0973099 0.408893 0.233163 0.502879 0.877509 2.50674 1.17478 -0.410266 -0.623754
internal_weight=0 12323 8367 8303 7883 11027 6562 6841 6643 4329 585 2314 64 6088 3744 3956 2189 6010 2973 5276 4466 3841 2177 2694 1919 1445 266 188 775 743
internal_count=23350 12323 8367 8303 7883 11027 6562 6841 6643 4329 585 2314 64 6088 3744 3956 2189 6010 2973 5276 4466 3841 2177 2694 1919 1445 266 188 775 743
is_linear=0
shrinkage=0.0957982


Tree=28
num_leaves=31
num_cat=0
split_feature=15 25 3 17 18 25 4 2 6 4 0 11 18 0 3 1 0 2 0 3 2 25 0 3 2 12 0 3 4 25
split_gain=253635 105513 72568.8 74319.5 71887.6 68195.3 67445.2 97168.4 68713.7 64935.1 62219 61849.1 71416 140582 61400 60238.6 69286.2 73090.1 70926.1 56745.1 56391.3 79690.7 71459.5 86410.4 69473.5 51053.5 47673 58055.3 53059.8 46720
threshold=1.0000000180025095e-35 0.48682212641654848 1.0000000180025095e-35 1.0000000180025095e-35 0.79510919161504012 0.28252719312425262 0.056318681318681334 0.0094871794871794913 0.5277777777777779 0.048076923076923093 0.0020016012810248202 0.020583249335654728 0.55235015205672844 0.0020016012810248202 0.038343558282208597 0.29564489112227815 0.0084067253803042433 0.032564102564102575 1.0000000180025095e-35 0.096625766871165655 0.059059829059829073 0.65590940260167596 0.0068054443554843884 0.0046012269938650319 0.036324786324786341 0.05000000000000001 0.0052041633306645326 1.0000000180025095e-35 0.020604395604395611 0.38648236531676267
decision_type=2 2 2 2 2 2 2 2 2 2 2 2 2 2 2 2 2 2 2 2 2 2 2 2 2 2 2 2 2 2
left_child=2 4 9 10 5 -2 7 26 15 -1 14 -11 -13 -14 -4 16 18 -18 -8 29 22 -22 23 25 -25 -3 27 28 -7 -6
right_child=1 20 3 -5 19 6 8 -9 -10 11 -12 12 13 -15 -16 -17 17 -19 -20 -21 21 -23 -24 24 -26 -27 -28 -29 -30 -31
leaf_value=-0.90776579322160444 -2.1896300138713718 0.81994049068776809 -0.34724543376812206 -1.9928967669037496 0.12915751625180905 -0.077617454061661997 0.041669306866669614 -0.8869207693226272 4.7205481758262069 -0.096635947378624243 -1.0066598390941037 0.50220458861766537 7.7896348201072856 0 1.6389258780682001 -1.2404795403358888 0.10783472806334601 3.6957159297218101 1.0939679143863461 0 -0.29864091024822209 -2.8187181301352799 -0.95656485001347746 2.1504450664983308 -0.65601606954938951 -0.15158899073711574 -1.0027470831228196 4.4759516715864462 2.0324782659663403 6.3249096729865144
leaf_weight=697 83 635 4177 317 23 232 764 692 38 3323 1481 809 37 42 144 149 2072 53 3240 35 630 147 509 345 93 2209 98 47 182 47
leaf_count=697 83 635 4177 317 23 232 764 692 38 3323 1481 809 37 42 144 149 2072 53 3240 35 630 147 509 345 93 2209 98 47 182 47
internal_value=0 0.304139 -0.328244 -0.548632 0.519504 0.482162 0.514258 -0.115683 0.642 -0.0495935 -0.466131 0.0881886 0.80022 3.56968 -0.276318 0.613515 0.661861 0.207983 0.897933 3.03055 -0.057409 -0.802792 0.0905977 0.258981 1.51164 0.0589604 0.805396 1.23185 0.807646 4.58619
internal_weight=0 12323 11027 6119 7755 7650 7567 1251 6316 4908 5802 4211 888 79 4321 6278 6129 2125 4004 105 4568 777 3791 3282 438 2844 559 461 414 70
internal_count=23350 12323 11027 6119 7755 7650 7567 1251 6316 4908 5802 4211 888 79 4321 6278 6129 2125 4004 105 4568 777 3791 3282 438 2844 559 461 414 70
is_linear=0
shrinkage=0.0957982


Tree=29
num_leaves=31
num_cat=0
split_feature=18 6 5 4 26 25 26 6 27 3 4 2 3 26 0 0 27 25 18 4 25 0 1 25 4 18 6 3 0 3
split_gain=213955 122614 106923 93107.7 92929.8 94320.8 94304.9 87551 82128.5 117327 91424.7 79827.4 79272.6 79109.1 70294.4 85640.4 67473.2 88960.4 83123.7 64350.8 114007 61633.9 92194.3 52764.7 51849.4 50452.5 50396.5 49995.6 54822 48637
threshold=0.32483720917598052 0.36111111111111116 0.014705882352941178 0.15521978021978025 0.7896511745922582 0.57669840247691806 0.42634155594826956 0.25000000000000006 0.52323069715205162 1.0000000180025095e-35 0.96291208791208815 0.008461538461538463 0.28374233128834364 0.60880631384185346 1.0000000180025095e-35 0.0068054443554843884 0.54510235434879928 0.45231459466533158 0.69643349589549375 0.1744505494505495 0.38204603426900979 0.0036028823058446759 0.010887772194304859 0.50248987214299501 0.99313186813186838 0.68867149283413631 0.19444444444444445 0.0046012269938650319 1.0000000180025095e-35 0.0076687116564417195
decision_type=2 2 2 2 2 2 2 2 2 2 2 2 2 2 2 2 2 2 2 2 2 2 2 2 2 2 2 2 2 2
left_child=4 2 3 11 5 6 -1 -4 -5 10 16 14 19 -14 -2 23 18 -18 -10 29 -21 22 26 -16 -7 -9 -8 28 -3 -11
right_child=1 27 7 8 -6 24 21 25 9 12 -12 -13 13 -15 15 -17 17 -19 -20 20 -22 -23 -24 -25 -26 -27 -28 -29 -30 -31
leaf_value=-0.95812340427064269 -1.766921829644801 0 -1.0416791626983508 0.092492312211435779 -1.0285748182406986 -0.72397880943418169 0.7640978856153936 0 1.7064418516428095 0 3.2742047683780369 -0.51679772150994996 4.1512768224672714 0.77609533693143051 1.6068850748780423 -0.77631751154926909 1.1490688468409995 -0.67932266604456126 6.8215522379188522 4.0181829031390892 -0.11970701140785876 -0.48511635860982799 0 -0.83707654479622728 0.60613249832874327 2.4746126035527092 4.6144178540926006 0 4.3622381363747742 6.7576452200799375
leaf_weight=823 103 26 949 2303 1338 3014 1664 366 421 22 209 1635 88 307 663 224 1156 295 34 62 1940 1213 3819 81 279 97 33 40 124 22
leaf_count=823 103 26 949 2303 1338 3014 1664 366 421 22 209 1635 88 307 663 224 1156 295 34 62 1940 1213 3819 81 279 97 33 40 124 22
internal_value=0 0.307783 0.263981 0.379987 -0.272685 -0.177602 0.0065199 -0.508258 0.568081 0.804286 1.32952 -0.0898811 0.34112 1.5847 0.544204 0.811189 1.1047 0.764183 2.14508 0.0911537 0.00116147 0.127427 0.2656 1.31478 -0.605423 0.544502 0.852914 2.72435 3.52479 3.67123
internal_weight=0 11167 10977 9565 12183 10845 7552 1412 6859 4556 2115 2706 2441 395 1071 968 1906 1451 455 2046 2002 6729 5516 744 3293 463 1697 190 150 44
internal_count=23350 11167 10977 9565 12183 10845 7552 1412 6859 4556 2115 2706 2441 395 1071 968 1906 1451 455 2046 2002 6729 5516 744 3293 463 1697 190 150 44
is_linear=0
shrinkage=0.0957982


Tree=30
num_leaves=31
num_cat=0
split_feature=15 4 1 6 3 27 27 4 3 25 26 0 1 18 2 25 1 1 27 2 4 25 25 27 0 1 4 3 18 18
split_gain=185220 87440.6 92280.6 81989.3 76280.7 64881.8 66336.6 66280.3 80118.1 83248.8 60290.7 57517.3 88698.4 81815.4 56052 101506 91314.5 82451.5 73576.2 52263.8 48998.7 48493.5 47448.9 44596.4 44081.9 48455.9 46529.3 56434.8 43559 45509
threshold=1.0000000180025095e-35 0.20192307692307698 0.062814070351758802 0.5277777777777779 1.0000000180025095e-35 0.38523161969615677 0.75876725459995964 0.96840659340659363 0.059815950920245407 0.38388098789618758 0.76121986575099509 0.009207365892714172 0.0058626465661641555 0.66145121263319384 0.016324786324786327 0.62098862684062095 0.16164154103852599 0.0025125628140703522 0.51827432508381588 0.022478632478632483 0.053571428571428582 0.58084129372614524 0.4204371703216197 0.43912141406026001 0.0084067253803042433 0.030988274706867675 0.179945054945055 0.0076687116564417195 0.1119004891465606 0.60804919515208755
decision_type=2 2 2 2 2 2 2 2 2 2 2 2 2 2 2 2 2 2 2 2 2 2 2 2 2 2 2 2 2 2
left_child=11 2 4 5 10 -3 7 14 9 -9 -2 12 13 20 17 16 -16 18 -7 -11 -1 -14 -15 -19 25 26 27 -6 -22 -30
right_child=1 3 -4 -5 24 6 -8 8 -10 19 -12 -13 21 22 15 -17 -18 23 -20 -21 28 -23 -24 -25 -26 -27 -28 -29 29 -31
leaf_value=-1.0179811806576713 0.039397030246686462 -0.50928238364743494 -1.0001194836888618 4.8041466638595125 1.9128811545932689 -0.46947952628271505 -0.62872402242859871 6.896384623141846 0 2.2168349167140109 -1.8466856480458034 -0.90644514505275886 -0.25380634809210173 1.0054283284495473 1.2169076845046609 -0.89326936444155125 0 1.1887774397917743 1.1275891654570855 -0.20886557977910117 -0.59484317396275455 -0.89633265450647814 4.720789827159094 -0.417608866646073 -0.35910254241884548 -0.12879060393713088 -1.0398214559896855 5.9333263545873827 0.58293913928061913 -1.5327080055827313
leaf_weight=305 2472 626 839 39 235 335 441 33 244 381 164 1214 5635 125 2244 306 770 170 1042 86 421 1386 53 1631 108 85 27 45 1795 93
leaf_count=305 2472 626 839 39 235 335 441 33 244 381 164 1214 5635 125 2244 306 770 170 1042 86 421 1386 53 1631 108 85 27 45 1795 93
internal_value=0 0.260162 -0.105841 0.436679 0.127689 0.413299 0.490974 0.561833 1.42989 2.1231 -0.0715341 -0.280239 -0.200764 0.251851 0.459334 0.736224 0.908148 0.164013 0.725362 1.73057 0.108534 -0.383438 2.23832 -0.254938 1.21336 1.69415 2.2585 2.64613 0.265872 0.46797
internal_weight=0 12323 3975 8348 3136 8309 7683 7242 744 500 2636 11027 9813 2792 6498 3320 3014 3178 1377 467 2614 7021 178 1801 500 392 307 280 2309 1888
internal_count=23350 12323 3975 8348 3136 8309 7683 7242 744 500 2636 11027 9813 2792 6498 3320 3014 3178 1377 467 2614 7021 178 1801 500 392 307 280 2309 1888
is_linear=0
shrinkage=0.0957982


Tree=31
num_leaves=31
num_cat=0
split_feature=25 27 27 6 28 4 17 3 0 3 0 1 27 4 11 4 0 27 28 8 16 0 1 18 4 8 13 4 25 27
split_gain=161966 113266 108618 100640 115293 77646.2 102358 193047 58093.6 89791.7 89907 59179.9 57450.3 68858 56131.3 53013.2 50314.8 46355.4 45773.1 41613.1 41221.8 38888.9 38208.3 62303.6 37463.8 37259.8 34419.2 34279.6 34207.1 66500.8
threshold=0.49601627074008198 0.42351656339675264 0.75876725459995964 0.36111111111111116 0.86889212422558748 0.94368131868131888 1.0000000180025095e-35 0.032208588957055223 0.0052041633306645326 0.34049079754601236 0.022818254603682947 0.084589614740368524 0.75471358172757175 0.18269230769230774 0.016139008521946305 0.050824175824175838 0.0044035228182546038 0.5160929884003026 0.81754100886665015 0.43750000000000006 1.0000000180025095e-35 0.002802241793434748 0.020938023450586266 0.20038075631807967 0.42719780219780229 0.56250000000000011 0.68181818181818199 0.94368131868131888 0.60284513998241007 0.22852922247856358
decision_type=2 2 2 2 2 2 2 2 2 2 2 2 2 2 2 2 2 2 2 2 2 2 2 2 2 2 2 2 2 2
left_child=1 -1 3 4 5 8 7 -7 11 -10 -11 15 13 -2 21 -3 17 27 -5 -13 24 22 23 -15 -19 -20 -25 -16 -24 -30
right_child=12 2 -4 18 -6 6 -8 -9 9 10 -12 19 -14 14 16 -17 -18 20 25 -21 -22 -23 28 26 -26 -27 -28 -29 29 -31
leaf_value=-0.69897632023872014 -0.65087954923763269 0.078585050797237807 -0.48268145345858393 -0.6316907748720797 -0.54906778784480581 2.581330195550688 -2.507720002380065 0 -0.30357244476521505 -1.3829697910473366 2.5844866647135825 -0.13987511872124089 -1.211964192885185 -0.029741178110068302 -0.0087360036886447237 0.83737440145392139 -0.292217113054282 0.0084218013470115944 2.0572076132719403 3.2928360979214291 1.0375278314349918 -0.73496172800388115 -0.050912845152311391 0.94167813060646699 5.2757941274618716 5.7874206645971649 3.9380726583536831 1.6961680728383191 3.0438924757135317 -0.94900084616116764
leaf_weight=1113 2576 1156 1399 31 1121 602 59 452 1850 63 203 1298 591 1192 359 3838 395 25 177 32 158 1000 2102 359 58 39 45 142 37 878
leaf_count=1113 2576 1156 1399 31 1121 602 59 452 1850 63 203 1298 591 1192 359 3838 395 25 177 32 158 1000 2102 359 58 39 45 142 37 878
internal_value=0 0.22098 0.305667 0.408413 0.361956 0.470876 1.22992 1.45929 0.36841 -0.0581538 1.57273 0.514091 -0.289401 -0.22879 -0.0648485 0.665545 0.544368 1.01477 2.33005 -0.0405746 2.12538 -0.19168 -0.0696947 0.303716 3.93303 2.84264 1.33139 0.4397 -0.273489 -0.763647
internal_weight=0 13433 12320 10921 10674 9553 1113 1054 8440 2116 266 6324 9917 9326 6750 4994 1137 742 247 1330 241 5613 4613 1596 83 216 404 501 3017 915
internal_count=23350 13433 12320 10921 10674 9553 1113 1054 8440 2116 266 6324 9917 9326 6750 4994 1137 742 247 1330 241 5613 4613 1596 83 216 404 501 3017 915
is_linear=0
shrinkage=0.0957982


Tree=32
num_leaves=31
num_cat=0
split_feature=25 27 27 6 5 6 2 0 1 18 18 3 11 18 25 3 3 6 25 15 11 28 2 16 0 12 0 2 0 25
split_gain=132392 92231.4 86885.2 82344.6 95730 75153.2 52437.1 70542.5 50251.2 48918.5 42002 50443.1 78155.8 42284.4 67276.4 82010.7 43726.9 41998.9 41892.1 39841.5 56643.6 38554 34188.3 46684.3 56083.4 64009.5 33350.3 49240.7 46654.5 38392.6
threshold=0.49484469067562392 0.42351656339675264 0.75876725459995964 0.36111111111111116 0.11764705882352942 0.19444444444444445 0.051367521367521381 0.002802241793434748 0.0092127303182579588 0.10803404282892644 0.79510919161504012 0.096625766871165655 0.00081325025199303566 0.37995338589716521 0.47352501946400244 0.0046012269938650319 1.0000000180025095e-35 0.30555555555555564 0.65590940260167596 1.0000000180025095e-35 0.0005612572161642072 0.81754100886665015 0.0062393162393162404 1.0000000180025095e-35 0.0076060848678943154 0.65000000000000002 0.017213771016813453 0.010170940170940173 1.0000000180025095e-35 0.40783006884472434
decision_type=2 2 2 2 2 2 2 2 2 2 2 2 2 2 2 2 2 2 2 2 2 2 2 2 2 2 2 2 2 2
left_child=1 22 3 4 10 -6 7 8 9 -2 13 12 -12 19 16 -16 -15 -7 -8 -3 -21 -5 23 24 25 -1 27 -23 -29 -30
right_child=6 2 -4 21 5 17 18 -9 -10 -11 11 -13 -14 14 15 -17 -18 -19 -20 20 -22 26 -24 -25 -26 -27 -28 28 29 -31
leaf_value=0.74226527140857068 -0.5241213889453149 0.34196400890572909 -0.42776664883695448 -0.57321170324164294 -1.9552009010599574 -0.33845138804982788 -0.46547459499261784 -0.63455624020286838 -0.20166882410083442 0.58488136871598084 0 0 6.4259183278475129 0.61432357804486659 -1.9078411798500601 1.4929871374619672 0.094104131005212116 0.89389920785920929 -1.6033645857064001 1.9115288045509411 0.53733153134336342 6.0282435555553429 -0.98793536852873287 -1.0161399685004211 -1.1837211395232961 5.798895149382985 -0.039271210519951687 -0.94611644615060742 5.3035213673279706 1.1932464471913415
leaf_weight=92 435 1080 1393 31 224 1173 1571 2042 3690 1874 21 35 42 3289 249 81 2877 320 397 545 661 44 767 157 52 36 25 30 42 75
leaf_count=92 435 1080 1393 31 224 1173 1571 2042 3690 1874 21 35 42 3289 249 81 2877 320 397 545 661 44 767 157 52 36 25 30 42 75
internal_value=0 0.201249 0.277987 0.370411 0.327885 -0.320376 -0.259643 -0.148153 0.0143685 0.367677 0.455368 2.45808 4.07023 0.430583 0.301092 -1.01423 0.374697 -0.0612952 -0.705307 0.790023 1.17505 2.10984 -0.631779 0.123846 1.22199 2.3465 2.58234 3.02153 1.95739 2.86273
internal_weight=0 13341 12237 10844 10597 1717 10009 8041 5999 2309 8880 98 63 8782 6496 330 6166 1493 1968 2286 1206 247 1104 337 180 128 216 191 147 117
internal_count=23350 13341 12237 10844 10597 1717 10009 8041 5999 2309 8880 98 63 8782 6496 330 6166 1493 1968 2286 1206 247 1104 337 180 128 216 191 147 117
is_linear=0
shrinkage=0.0957982


Tree=33
num_leaves=31
num_cat=0
split_feature=15 4 8 13 0 11 0 25 25 3 3 25 27 3 16 4 4 2 0 3 26 5 12 4 2 2 25 12 4 6
split_gain=121703 69542.1 93867.6 73518.5 59366.9 61351.2 65655.3 54525.4 52444.8 52408.4 113381 104852 50170.5 47466 60505.8 47988.1 50605.8 46904.2 47951.1 45635.3 42955.4 40408.9 44521.4 39709 46857.2 39382.1 39115.7 43908.5 37846.8 40523.7
threshold=1.0000000180025095e-35 0.58653846153846168 0.56250000000000011 0.77272727272727282 1.0000000180025095e-35 0.032140566297076893 0.0076060848678943154 0.41600588687658663 0.39551655742951303 0.019938650306748473 0.0076687116564417195 0.50140380646918115 0.38523161969615677 1.0000000180025095e-35 1.0000000180025095e-35 0.20192307692307698 0.24587912087912092 0.015982905982905988 0.0044035228182546038 1.0000000180025095e-35 0.55500160199879656 0.11764705882352942 0.88333333333333341 0.042582417582417591 0.0093162393162393182 0.022136752136752143 0.46923518938569592 0.35000000000000003 0.995879120879121 0.30555555555555564
decision_type=2 2 2 2 2 2 2 2 2 2 2 2 2 2 2 2 2 2 2 2 2 2 2 2 2 2 2 2 2 2
left_child=13 3 12 4 9 6 7 8 -6 10 -2 -12 -3 15 -15 -1 -17 18 19 -5 -10 22 -14 24 -9 -25 27 -20 29 -23
right_child=1 2 -4 17 5 -7 -8 23 20 -11 11 -13 21 14 -16 16 -18 -19 26 -21 -22 28 -24 25 -26 -27 -28 -29 -30 -31
leaf_value=-0.39786837139944758 -0.86896060387865792 -0.6076966368019765 5.5453465633696997 1.835313554604084 0.01621185457945417 0.79750947633160163 -1.0064582645299853 0.2169237093454687 -0.97969670928225672 -4.899439263910498 7.5107048813818462 0 0.75840995961101876 -1.7069997105975436 -0.3313680717282852 1.0621449434816495 0.036373372428612244 -1.7919057273912824 4.215187756652325 6.1430681395283901 1.840401690942483 -1.2809445317110073 -0.16874038583692871 0.5069539466991172 -1.2012349056896729 -0.23707572689020884 -2.1623409283358046 -0.063356605695567891 3.0480398772526383 0.40987695013423037
leaf_weight=1809 929 366 33 165 510 898 594 314 47 27 28 35 3571 317 5802 544 2555 32 31 33 385 266 511 1126 557 1522 40 45 28 230
leaf_count=1809 929 366 33 165 510 898 594 314 47 27 28 35 3571 317 5802 544 2555 32 31 33 385 266 511 1126 557 1522 40 45 28 230
internal_value=0 0.210073 0.485377 0.0191747 -0.0459571 0.0668586 -0.0593675 0.0627464 0.712266 -0.722807 -0.58502 3.25307 0.446821 -0.227978 -0.40599 -0.00217842 0.222802 1.38176 1.76981 2.677 1.48855 0.534813 0.637733 -0.105954 -0.668815 0.0722952 0.0505666 1.47282 -0.230845 -0.459933
internal_weight=0 12323 5005 7318 6972 5953 5055 4461 942 1019 992 63 4972 11027 6119 4908 3099 346 314 198 432 4606 4082 3519 871 2648 116 76 524 496
internal_count=23350 12323 5005 7318 6972 5953 5055 4461 942 1019 992 63 4972 11027 6119 4908 3099 346 314 198 432 4606 4082 3519 871 2648 116 76 524 496
is_linear=0
shrinkage=0.0957982


Tree=34
num_leaves=31
num_cat=0
split_feature=25 27 27 4 6 28 3 25 27 26 0 1 26 26 3 19 28 6 1 2 0 1 4 25 25 18 25 18 4 8
split_gain=100060 71919.5 68164.4 64821.3 74038.4 82747.1 66720.8 60786.9 50926.7 48279.3 45456.4 53368.8 55079.8 51840.4 55565.3 43214.9 42959.8 41017.2 40202.7 39663 55971 44815.4 46566.9 61565.9 40725.5 38498 38304.9 37271.3 45641.3 27776.5
threshold=0.49484469067562392 0.42351656339675264 0.75876725459995964 0.98763736263736279 0.36111111111111116 0.79303573798593752 0.064417177914110446 0.3829491331105111 0.75471358172757175 0.57987347086809404 0.0044035228182546038 0.027638190954773875 0.61872347905272573 0.50027361391159542 0.34049079754601236 0.69579070085530781 0.82974511665009187 0.19444444444444445 0.0025125628140703522 0.051367521367521381 0.0044035228182546038 0.0092127303182579588 0.96016483516483542 0.51557001493456067 0.65590940260167596 0.37995338589716521 0.46923518938569592 0.11634065926954461 0.14148351648351654 0.31250000000000006
decision_type=2 2 2 2 2 2 2 2 2 2 2 2 2 2 2 2 2 2 2 2 2 2 2 2 2 2 2 2 2 2
left_child=1 -1 3 4 5 10 7 -5 19 -6 11 12 -3 18 -15 26 -11 -7 -12 20 21 22 27 -24 -21 -13 -9 -2 -29 -19
right_child=8 2 -4 6 9 17 -8 15 -10 16 13 25 -14 14 -16 -17 -18 29 -20 24 -22 -23 23 -25 -26 -27 -28 28 -30 -31
leaf_value=-0.56037746732944871 -0.38340650385244973 0.38359403206078951 -0.38189146916525946 5.5247573113979822 4.57399165722126 -1.5832805748169654 -0.080253226575885517 0.1673521138182846 -1.0890490238467343 -1.3634020474040529 0 0.62853789167323004 1.1772655043974922 -0.2620577267987792 1.088568610728551 0.89478696488464948 1.9070827378184636 -1.1544268889977742 4.2492500449226807 -0.32095841345727061 -0.61037006695037854 -0.1474152214764072 4.9677688064843881 0.86698185145548512 -1.4590046201863878 -0.18516922387820323 4.7529240529503856 -0.32263633234977973 0.86975987027072055 0
leaf_weight=1104 665 1959 1393 40 53 228 229 35 597 42 23 854 1490 2069 320 369 142 228 45 1469 1426 3770 40 342 384 1370 62 407 909 1286
leaf_count=1104 665 1959 1393 40 53 228 229 35 597 42 23 854 1490 2069 320 369 142 228 45 1469 1426 3770 40 342 384 1370 62 407 909 1286
internal_value=0 0.174682 0.242575 0.324555 0.258951 0.216523 1.19964 1.81485 -0.225999 1.93838 0.346114 0.495167 0.732171 0 -0.0728792 1.44417 1.05551 -0.377352 2.58908 -0.169143 -0.0689061 0.0540154 0.383247 1.35818 -0.567637 0.119003 3.30983 0.185138 0.486769 -0.182354
internal_weight=0 13341 12237 10844 10109 9872 735 506 10009 237 8130 5673 3449 2457 2389 466 184 1742 68 9412 7559 6133 2363 382 1853 2224 97 1981 1316 1514
internal_count=23350 13341 12237 10844 10109 9872 735 506 10009 237 8130 5673 3449 2457 2389 466 184 1742 68 9412 7559 6133 2363 382 1853 2224 97 1981 1316 1514
is_linear=0
shrinkage=0.0957982


Tree=35
num_leaves=31
num_cat=0
split_feature=15 1 8 2 4 1 3 4 28 18 4 3 16 11 18 0 26 26 27 4 12 2 0 13 4 0 18 4 4 4
split_gain=93936.9 58905.9 73168.1 66066.7 51546.1 52318.3 55707.4 48480.7 43252.7 58354 39715.1 49746.8 50370.5 38991.6 54302.8 127973 38763.9 52787.7 60678.1 54776.1 53714.3 44684.7 35824.6 40746.7 51266.9 37385.2 35533.7 100859 39334.6 35510.1
threshold=1.0000000180025095e-35 0.22026800670016752 0.43750000000000006 0.0026495726495726502 0.20192307692307698 0.062814070351758802 1.0000000180025095e-35 0.91346153846153866 0.18385776528568445 0.64031435212411447 0.050824175824175838 1.0000000180025095e-35 1.0000000180025095e-35 0.032621643910931926 0.5583215101041662 0.0020016012810248202 0.54480866331586253 0.56495466748113909 0.5173290828077769 0.96291208791208815 0.95000000000000007 0.032905982905982914 1.0000000180025095e-35 0.95454545454545459 0.023351648351648355 0.0020016012810248202 0.66145121263319384 0.90247252747252771 0.995879120879121 0.037087912087912102
decision_type=2 2 2 2 2 2 2 2 2 2 2 2 2 2 2 2 2 2 2 2 2 2 2 2 2 2 2 2 2 2
